{"learner":{"attributes":{"scikit_learn":"{\"_estimator_type\": \"classifier\"}"},"feature_names":[],"feature_types":[],"gradient_booster":{"model":{"gbtree_model_param":{"num_parallel_tree":"1","num_trees":"100"},"iteration_indptr":[0,1,2,3,4,5,6,7,8,9,10,11,12,13,14,15,16,17,18,19,20,21,22,23,24,25,26,27,28,29,30,31,32,33,34,35,36,37,38,39,40,41,42,43,44,45,46,47,48,49,50,51,52,53,54,55,56,57,58,59,60,61,62,63,64,65,66,67,68,69,70,71,72,73,74,75,76,77,78,79,80,81,82,83,84,85,86,87,88,89,90,91,92,93,94,95,96,97,98,99,100],"tree_info":[0,0,0,0,0,0,0,0,0,0,0,0,0,0,0,0,0,0,0,0,0,0,0,0,0,0,0,0,0,0,0,0,0,0,0,0,0,0,0,0,0,0,0,0,0,0,0,0,0,0,0,0,0,0,0,0,0,0,0,0,0,0,0,0,0,0,0,0,0,0,0,0,0,0,0,0,0,0,0,0,0,0,0,0,0,0,0,0,0,0,0,0,0,0,0,0,0,0,0,0],"trees":[{"base_weights":[-1.9673838E-3,-1.751459E-1,2.2663896E0,2.7578053E-1,2.307154E0,-1.430219E0,8.5989386E-1,2.1965857E0,2.3174117E0,-1.7373213E-1,-1.2763591E0,1.2028532E0,-9.581158E-1,1.5750571E0,2.221369E0,2.288661E0,2.3231931E-1,-2.5535224E-2,-1.4712094E-1,-1.7166138E-1,1.3677767E-1,2.5301573E-3,-1.7336951E-1,-1.6549645E-1,1.8310618E-1,2.2241347E-1,-5.8307093E-2,2.2891931E-1,-1.0423195E-1],"categories":[],"categories_nodes":[],"categories_segments":[],"categories_sizes":[],"default_left":[0,0,0,0,0,0,0,0,0,0,0,0,0,0,0,0,0,0,0,0,0,0,0,0,0,0,0,0,0],"id":0,"left_children":[1,-1,3,5,7,9,11,13,15,-1,17,19,21,23,25,27,-1,-1,-1,-1,-1,-1,-1,-1,-1,-1,-1,-1,-1],"loss_changes":[6.7364506E5,0E0,5.9972188E3,1.4804253E3,7.70625E1,1.5689758E1,6.910039E2,9.151367E1,5.71875E0,0E0,5.0604645E1,4.5073914E2,1.3439752E2,2.0145752E2,4.7291016E1,2.2167969E1,0E0,0E0,0E0,0E0,0E0,0E0,0E0,0E0,0E0,0E0,0E0,0E0,0E0],"parents":[2147483647,0,0,2,2,3,3,4,4,5,5,6,6,7,7,8,8,10,10,11,11,12,12,13,13,14,14,15,15],"right_children":[2,-1,4,6,8,10,12,14,16,-1,18,20,22,24,26,28,-1,-1,-1,-1,-1,-1,-1,-1,-1,-1,-1,-1,-1],"split_conditions":[4.787234E-1,-1.751459E-1,2.3131792E-3,6.803538E-2,2.2281056E-2,6.393212E-1,1.6353439E-1,1.7485343E-3,5.4294117E-2,-1.7373213E-1,6.4927304E-1,5.219459E-1,1.3005257E-1,6.393212E-1,4.692801E-1,5.6902206E-1,2.3231931E-1,-2.5535224E-2,-1.4712094E-1,-1.7166138E-1,1.3677767E-1,2.5301573E-3,-1.7336951E-1,-1.6549645E-1,1.8310618E-1,2.2241347E-1,-5.8307093E-2,2.2891931E-1,-1.0423195E-1],"split_indices":[1,0,2,4,2,1,4,4,2,0,1,1,3,1,0,0,0,0,0,0,0,0,0,0,0,0,0,0,0],"split_type":[0,0,0,0,0,0,0,0,0,0,0,0,0,0,0,0,0,0,0,0,0,0,0,0,0,0,0,0,0],"sum_hessian":[1.6974727E5,9.583436E4,7.3912914E4,1.4833951E3,7.2429516E4,3.7798343E2,1.1054117E3,6.167279E3,6.6262234E4,1.2272826E2,2.5525517E2,9.302606E2,1.7515111E2,2.389649E2,5.928314E3,1.1159942E4,5.5102293E4,4.127687E1,2.139783E2,4.923828E1,8.8102234E2,7.76544E1,9.74967E1,1.7147661E1,2.2181725E2,5.9226797E3,5.6342316E0,1.1158473E4,1.4697995E0],"tree_param":{"num_deleted":"0","num_feature":"5","num_nodes":"29","size_leaf_vector":"1"}},{"base_weights":[-4.476144E-3,-1.6307232E-1,1.99832E0,2.466079E-1,2.0334742E0,-1.3232472E0,7.6655024E-1,1.8850833E0,2.0396216E0,-1.6180211E-1,-1.1769596E0,1.0680248E0,-8.798217E-1,-5.311659E-1,1.9207886E0,2.009483E0,2.0474783E-1,-2.3132015E-2,-1.361504E-1,-1.5994193E-1,1.2119837E-1,2.2795063E-3,-1.6147633E-1,-1.7035466E-1,3.9778978E-2,2.0659022E-1,1.649401E-1,2.0099063E-1,-1.05584934E-1],"categories":[],"categories_nodes":[],"categories_segments":[],"categories_sizes":[],"default_left":[0,0,0,0,0,0,0,0,0,0,0,0,0,0,0,0,0,0,0,0,0,0,0,0,0,0,0,0,0],"id":1,"left_children":[1,-1,3,5,7,9,11,13,15,-1,17,19,21,23,25,27,-1,-1,-1,-1,-1,-1,-1,-1,-1,-1,-1,-1,-1],"loss_changes":[5.476193E5,0E0,4.6391875E3,1.2118419E3,6.353125E1,1.4026733E1,5.543511E2,2.556416E2,1.26875E1,0E0,4.3414246E1,3.6400208E2,1.1487843E2,4.8336967E1,1.11137695E2,2.1214844E1,0E0,0E0,0E0,0E0,0E0,0E0,0E0,0E0,0E0,0E0,0E0,0E0,0E0],"parents":[2147483647,0,0,2,2,3,3,4,4,5,5,6,6,7,7,8,8,10,10,11,11,12,12,13,13,14,14,15,15],"right_children":[2,-1,4,6,8,10,12,14,16,-1,18,20,22,24,26,28,-1,-1,-1,-1,-1,-1,-1,-1,-1,-1,-1,-1,-1],"split_conditions":[4.787234E-1,-1.6307232E-1,2.3131792E-3,6.803538E-2,1.1175785E-2,6.393212E-1,1.6353439E-1,5.583256E-1,5.4294117E-2,-1.6180211E-1,6.4927304E-1,5.219459E-1,1.3005257E-1,2.2296056E-1,1.0638298E-2,5.6902206E-1,2.0474783E-1,-2.3132015E-2,-1.361504E-1,-1.5994193E-1,1.2119837E-1,2.2795063E-3,-1.6147633E-1,-1.7035466E-1,3.9778978E-2,2.0659022E-1,1.649401E-1,2.0099063E-1,-1.05584934E-1],"split_indices":[1,0,2,4,2,1,4,1,2,0,1,1,3,0,2,0,0,0,0,0,0,0,0,0,0,0,0,0,0],"split_type":[0,0,0,0,0,0,0,0,0,0,0,0,0,0,0,0,0,0,0,0,0,0,0,0,0,0,0,0,0],"sum_hessian":[1.6813198E5,9.278877E4,7.534321E4,1.4824316E3,7.386078E4,3.6844513E2,1.1139866E3,2.950338E3,7.0910445E4,1.18865974E2,2.4957916E2,9.4186816E2,1.7211836E2,4.2760685E1,2.9075771E3,1.4716005E4,5.6194438E4,4.1121025E1,2.0845815E2,4.7711006E1,8.9415717E2,7.768217E1,9.4436195E1,1.8534962E1,2.4225725E1,1.8902368E3,1.0173404E3,1.4714318E4,1.6871394E0],"tree_param":{"num_deleted":"0","num_feature":"5","num_nodes":"29","size_leaf_vector":"1"}},{"base_weights":[-5.955216E-3,-1.5358159E-1,1.807345E0,2.2244133E-1,1.8390228E0,-1.2340078E0,6.896531E-1,1.7020315E0,1.8447077E0,-1.5238942E-1,-1.0921968E0,9.577635E-1,-8.1286776E-1,-4.8735058E-1,1.7341192E0,1.7976906E0,1.8493407E0,-2.0953452E-2,-1.2696409E-1,-1.506462E-1,1.0847119E-1,2.0537728E-3,-1.5208392E-1,-1.5849774E-1,3.5927083E-2,1.8668573E-1,1.4865424E-1,-1.5818714E-1,1.7997845E-1,1.832361E-1,1.8527617E-1],"categories":[],"categories_nodes":[],"categories_segments":[],"categories_sizes":[],"default_left":[0,0,0,0,0,0,0,0,0,0,0,0,0,0,0,0,0,0,0,0,0,0,0,0,0,0,0,0,0,0,0],"id":2,"left_children":[1,-1,3,5,7,9,11,13,15,-1,17,19,21,23,25,27,29,-1,-1,-1,-1,-1,-1,-1,-1,-1,-1,-1,-1,-1,-1],"loss_changes":[4.5453766E5,0E0,3.7640312E3,1.0014124E3,5.4125E1,1.3031372E1,4.4950916E2,2.0752734E2,1.203125E1,0E0,3.788446E1,2.9747797E2,9.9870125E1,4.07846E1,9.251758E1,4.789258E1,3.28125E-1,0E0,0E0,0E0,0E0,0E0,0E0,0E0,0E0,0E0,0E0,0E0,0E0,0E0,0E0],"parents":[2147483647,0,0,2,2,3,3,4,4,5,5,6,6,7,7,8,8,10,10,11,11,12,12,13,13,14,14,15,15,16,16],"right_children":[2,-1,4,6,8,10,12,14,16,-1,18,20,22,24,26,28,30,-1,-1,-1,-1,-1,-1,-1,-1,-1,-1,-1,-1,-1,-1],"split_conditions":[4.787234E-1,-1.5358159E-1,2.3131792E-3,6.803538E-2,1.1175785E-2,6.393212E-1,1.6353439E-1,5.583256E-1,3.3085354E-2,-1.5238942E-1,6.4927304E-1,5.219459E-1,1.3005257E-1,2.2296056E-1,1.0638298E-2,1.3766189E-2,6.433524E-2,-2.0953452E-2,-1.2696409E-1,-1.506462E-1,1.0847119E-1,2.0537728E-3,-1.5208392E-1,-1.5849774E-1,3.5927083E-2,1.8668573E-1,1.4865424E-1,-1.5818714E-1,1.7997845E-1,1.832361E-1,1.8527617E-1],"split_indices":[1,0,2,4,2,1,4,1,2,0,1,1,3,0,2,3,2,0,0,0,0,0,0,0,0,0,0,0,0,0,0],"split_type":[0,0,0,0,0,0,0,0,0,0,0,0,0,0,0,0,0,0,0,0,0,0,0,0,0,0,0,0,0,0,0],"sum_hessian":[1.638487E5,8.887014E4,7.497856E4,1.469397E3,7.3509164E4,3.5648322E2,1.1129138E3,2.9409966E3,7.0568164E4,1.13901855E2,2.4258136E2,9.447032E2,1.6821063E2,4.2275883E1,2.8987207E3,6.3646973E3,6.420347E4,4.096909E1,2.0161226E2,4.575109E1,8.989521E2,7.770698E1,9.050365E1,1.8029238E1,2.4246647E1,1.8827471E3,1.0159736E3,3.4736323E0,6.3612236E3,1.0856068E4,5.3347402E4],"tree_param":{"num_deleted":"0","num_feature":"5","num_nodes":"31","size_leaf_vector":"1"}},{"base_weights":[-6.8802927E-3,-1.4595297E-1,1.6643502E0,2.0187978E-1,1.6937946E0,-1.1576768E0,6.245735E-1,1.6048695E0,1.7020789E0,-1.0287406E0,-1.4808138E-1,8.6502004E-1,-7.54362E-1,1.2494503E0,1.639555E0,1.6792775E0,1.7066738E-1,-1.0778632E-1,2.2536819E-1,1.4102322E-2,1.2268175E-1,1.5823394E-2,-1.3661005E-1,-1.7301689E-1,1.3809852E-1,1.6609918E-1,1.2328416E-1,1.6797276E-1,-1.0281297E-1],"categories":[],"categories_nodes":[],"categories_segments":[],"categories_sizes":[],"default_left":[0,0,0,0,0,0,0,0,0,0,0,0,0,0,0,0,0,0,0,0,0,0,0,0,0,0,0,0,0],"id":3,"left_children":[1,-1,3,5,7,9,11,13,15,17,-1,19,21,23,25,27,-1,-1,-1,-1,-1,-1,-1,-1,-1,-1,-1,-1,-1],"loss_changes":[3.8297322E5,0E0,3.1585E3,8.333706E2,5.021875E1,1.280838E1,3.673301E2,7.371289E1,4.046875E0,4.26026E1,0E0,2.4662024E2,9.218609E1,2.1819482E2,4.6742188E1,1.5240234E1,0E0,0E0,0E0,0E0,0E0,0E0,0E0,0E0,0E0,0E0,0E0,0E0,0E0],"parents":[2147483647,0,0,2,2,3,3,4,4,5,5,6,6,7,7,8,8,9,9,11,11,12,12,13,13,14,14,15,15],"right_children":[2,-1,4,6,8,10,12,14,16,18,-1,20,22,24,26,28,-1,-1,-1,-1,-1,-1,-1,-1,-1,-1,-1,-1,-1],"split_conditions":[4.787234E-1,-1.4595297E-1,2.3131792E-3,6.803538E-2,2.2281056E-2,3.499009E-3,1.6353439E-1,7.499033E-2,5.4294117E-2,1.7485343E-3,-1.4808138E-1,2.2548535E-1,6.808436E-1,6.393212E-1,2.5161746E-1,5.6902206E-1,1.7066738E-1,-1.0778632E-1,2.2536819E-1,1.4102322E-2,1.2268175E-1,1.5823394E-2,-1.3661005E-1,-1.7301689E-1,1.3809852E-1,1.6609918E-1,1.2328416E-1,1.6797276E-1,-1.0281297E-1],"split_indices":[1,0,2,4,2,4,4,4,2,4,0,3,1,1,4,0,0,0,0,0,0,0,0,0,0,0,0,0,0],"split_type":[0,0,0,0,0,0,0,0,0,0,0,0,0,0,0,0,0,0,0,0,0,0,0,0,0,0,0,0,0],"sum_hessian":[1.5774869E5,8.439333E4,7.335535E4,1.4478989E3,7.190745E4,3.4298373E2,1.1049153E3,6.144631E3,6.576283E4,2.4815144E2,9.483229E1,9.411743E2,1.6374092E2,5.4963153E2,5.5949995E3,1.1090973E4,5.467185E4,2.4515425E2,2.9971933E0,3.1407172E2,6.271026E2,6.600922E1,9.77317E1,2.2723745E1,5.269078E2,5.311938E3,2.8306146E2,1.1089509E4,1.4636421E0],"tree_param":{"num_deleted":"0","num_feature":"5","num_nodes":"29","size_leaf_vector":"1"}},{"base_weights":[-7.4828602E-3,-1.397122E-1,1.5531996E0,1.8399702E-1,1.5812945E0,-1.1175553E0,5.6223434E-1,1.447008E0,1.5869159E0,-9.6121037E-1,-1.561905E-1,-1.4403434E-1,6.943548E-1,-5.356193E-1,1.4766321E0,1.5585736E0,1.5943399E-1,-1.00919046E-1,1.9808954E-1,7.972367E-2,-1.5404414E-1,-1.4973651E-1,1.7278561E-2,1.6120677E-1,1.22792564E-1,1.5589681E-1,-1.0602849E-1],"categories":[],"categories_nodes":[],"categories_segments":[],"categories_sizes":[],"default_left":[0,0,0,0,0,0,0,0,0,0,0,0,0,0,0,0,0,0,0,0,0,0,0,0,0,0,0],"id":4,"left_children":[1,-1,3,5,7,9,11,13,15,17,-1,-1,19,21,23,25,-1,-1,-1,-1,-1,-1,-1,-1,-1,-1,-1],"loss_changes":[3.2632844E5,0E0,2.7259375E3,7.0269696E2,5.0140625E1,2.0830444E1,2.9353735E2,1.653374E2,1.153125E1,3.5932617E1,0E0,0E0,2.3986304E2,2.8858809E1,9.100781E1,1.59921875E1,0E0,0E0,0E0,0E0,0E0,0E0,0E0,0E0,0E0,0E0,0E0],"parents":[2147483647,0,0,2,2,3,3,4,4,5,5,6,6,7,7,8,8,9,9,12,12,13,13,14,14,15,15],"right_children":[2,-1,4,6,8,10,12,14,16,18,-1,-1,20,22,24,26,-1,-1,-1,-1,-1,-1,-1,-1,-1,-1,-1],"split_conditions":[4.787234E-1,-1.397122E-1,2.3131792E-3,2.2129446E-2,1.1175785E-2,3.499009E-3,5.219459E-1,5.583256E-1,5.4294117E-2,1.7485343E-3,-1.561905E-1,-1.4403434E-1,2.883596E-1,2.2296056E-1,1.0638298E-2,5.6902206E-1,1.5943399E-1,-1.00919046E-1,1.9808954E-1,7.972367E-2,-1.5404414E-1,-1.4973651E-1,1.7278561E-2,1.6120677E-1,1.22792564E-1,1.5589681E-1,-1.0602849E-1],"split_indices":[1,0,2,0,2,4,1,1,2,4,0,0,0,0,2,0,0,0,0,0,0,0,0,0,0,0,0],"split_type":[0,0,0,0,0,0,0,0,0,0,0,0,0,0,0,0,0,0,0,0,0,0,0,0,0,0,0],"sum_hessian":[1.5046398E5,7.9593586E4,7.08704E4,1.4251119E3,6.944529E4,3.2045154E2,1.1046604E3,2.8005813E3,6.664471E4,2.3938641E2,8.106514E1,6.775665E1,1.0369037E3,4.097836E1,2.759603E3,1.3877259E4,5.276745E4,2.3619157E2,3.19484E0,9.918842E2,4.5019493E1,1.6908842E1,2.4069519E1,1.7831107E3,9.764924E2,1.3875573E4,1.685379E0],"tree_param":{"num_deleted":"0","num_feature":"5","num_nodes":"27","size_leaf_vector":"1"}},{"base_weights":[-7.896143E-3,-1.3453381E-1,1.4643863E0,1.6747525E-1,1.4917475E0,-1.0385447E0,5.215256E-1,1.399979E0,1.5003757E0,-9.003314E-1,-1.3895129E-1,7.279897E-1,-6.915155E-1,1.1212499E0,1.4454834E0,1.4763794E0,1.5052317E-1,-9.4701305E-2,1.7769079E-1,-1.3736694E-1,8.275505E-2,1.4223145E-2,-1.2824933E-1,1.24823295E-1,-4.14812E-2,1.4485505E-1,-1.0392012E-1,1.4767987E-1,-9.297357E-2],"categories":[],"categories_nodes":[],"categories_segments":[],"categories_sizes":[],"default_left":[0,0,0,0,0,0,0,0,0,0,0,0,0,0,0,0,0,0,0,0,0,0,0,0,0,0,0,0,0],"id":5,"left_children":[1,-1,3,5,7,9,11,13,15,17,-1,19,21,23,25,27,-1,-1,-1,-1,-1,-1,-1,-1,-1,-1,-1,-1,-1],"loss_changes":[2.80512E5,0E0,2.4059844E3,5.992585E2,5.0484375E1,1.4201355E1,2.7214667E2,7.095703E1,4.84375E0,3.060115E1,0E0,1.9517902E2,7.816568E1,1.5803406E2,3.8967773E1,1.17265625E1,0E0,0E0,0E0,0E0,0E0,0E0,0E0,0E0,0E0,0E0,0E0,0E0,0E0],"parents":[2147483647,0,0,2,2,3,3,4,4,5,5,6,6,7,7,8,8,9,9,11,11,12,12,13,13,14,14,15,15],"right_children":[2,-1,4,6,8,10,12,14,16,18,-1,20,22,24,26,28,-1,-1,-1,-1,-1,-1,-1,-1,-1,-1,-1,-1,-1],"split_conditions":[4.787234E-1,-1.3453381E-1,2.3131792E-3,6.803538E-2,2.2281056E-2,3.499009E-3,1.6353439E-1,1.10129304E-1,5.4294117E-2,1.7485343E-3,-1.3895129E-1,5.219459E-1,6.808436E-1,2.1276595E-2,4.692801E-1,5.6902206E-1,1.5052317E-1,-9.4701305E-2,1.7769079E-1,-1.3736694E-1,8.275505E-2,1.4223145E-2,-1.2824933E-1,1.24823295E-1,-4.14812E-2,1.4485505E-1,-1.0392012E-1,1.4767987E-1,-9.297357E-2],"split_indices":[1,0,2,4,2,4,4,0,2,4,0,1,1,2,0,0,0,0,0,0,0,0,0,0,0,0,0,0,0],"split_type":[0,0,0,0,0,0,0,0,0,0,0,0,0,0,0,0,0,0,0,0,0,0,0,0,0,0,0,0,0],"sum_hessian":[1.4245552E5,7.464608E4,6.7809445E4,1.4011742E3,6.640827E4,3.175509E2,1.0836233E3,5.721306E3,6.0686965E4,2.3038806E2,8.716285E1,9.2635425E2,1.5726903E2,8.065527E2,4.9147534E3,1.0264964E4,5.0422E4,2.2707495E2,3.313117E0,4.132003E1,8.8503424E2,6.5550385E1,9.171864E1,7.451408E2,6.1411858E1,4.9091104E3,5.64284E0,1.02635625E4,1.4020112E0],"tree_param":{"num_deleted":"0","num_feature":"5","num_nodes":"29","size_leaf_vector":"1"}},{"base_weights":[-8.18739E-3,-1.3018651E-1,1.3918725E0,1.5336959E-1,1.4188E0,-1.0053701E0,4.7137538E-1,1.2743545E0,1.4249295E0,-8.446979E-1,-1.4732032E0,-1.3451758E-1,5.824926E-1,-6.298355E-1,1.3049515E0,1.3941665E0,1.4330356E-1,-8.8996604E-2,1.6187364E-1,-1.2921461E-1,-1.67317E-1,6.69097E-2,-1.4630155E-1,-1.4195862E-2,-1.959881E-1,1.4516583E-1,1.04201E-1,1.3945429E-1,-9.646497E-2],"categories":[],"categories_nodes":[],"categories_segments":[],"categories_sizes":[],"default_left":[0,0,0,0,0,0,0,0,0,0,0,0,0,0,0,0,0,0,0,0,0,0,0,0,0,0,0,0,0],"id":6,"left_children":[1,-1,3,5,7,9,11,13,15,17,19,-1,21,23,25,27,-1,-1,-1,-1,-1,-1,-1,-1,-1,-1,-1,-1,-1],"loss_changes":[2.4282723E5,0E0,2.1470625E3,5.057504E2,5.396875E1,2.097528E1,2.180997E2,1.5082861E2,1.30703125E1,2.6239044E1,5.2534485E-1,0E0,1.8083221E2,2.6580029E1,9.624707E1,1.2574219E1,0E0,0E0,0E0,0E0,0E0,0E0,0E0,0E0,0E0,0E0,0E0,0E0,0E0],"parents":[2147483647,0,0,2,2,3,3,4,4,5,5,6,6,7,7,8,8,9,9,10,10,12,12,13,13,14,14,15,15],"right_children":[2,-1,4,6,8,10,12,14,16,18,20,-1,22,24,26,28,-1,-1,-1,-1,-1,-1,-1,-1,-1,-1,-1,-1,-1],"split_conditions":[4.787234E-1,-1.3018651E-1,2.3131792E-3,2.2129446E-2,1.1175785E-2,3.499009E-3,5.219459E-1,5.583256E-1,5.4294117E-2,1.7485343E-3,6.803538E-2,-1.3451758E-1,2.883596E-1,1.2309181E-1,1.0638298E-2,5.6902206E-1,1.4330356E-1,-8.8996604E-2,1.6187364E-1,-1.2921461E-1,-1.67317E-1,6.69097E-2,-1.4630155E-1,-1.4195862E-2,-1.959881E-1,1.4516583E-1,1.04201E-1,1.3945429E-1,-9.646497E-2],"split_indices":[1,0,2,0,2,4,1,1,2,4,4,0,0,4,2,0,0,0,0,0,0,0,0,0,0,0,0,0,0],"split_type":[0,0,0,0,0,0,0,0,0,0,0,0,0,0,0,0,0,0,0,0,0,0,0,0,0,0,0,0,0],"sum_hessian":[1.3406586E5,6.968026E4,6.4385598E4,1.3702234E3,6.3015375E4,2.9460162E2,1.0756218E3,2.573654E3,6.0441723E4,2.2137746E2,7.322416E1,6.136223E1,1.0142596E3,4.0390522E1,2.5332634E3,1.2641001E4,4.7800723E4,2.1801003E2,3.367428E0,4.2345146E1,3.0879013E1,9.7370685E2,4.0552723E1,3.0360613E1,1.0029909E1,1.6231277E3,9.101358E2,1.2639393E4,1.6085789E0],"tree_param":{"num_deleted":"0","num_feature":"5","num_nodes":"29","size_leaf_vector":"1"}},{"base_weights":[-8.401676E-3,-1.2650138E-1,1.3314811E0,1.398909E-1,1.3584062E0,-9.427509E-1,4.412535E-1,1.2573658E0,1.3680353E0,-7.9327536E-1,-1.3279223E-1,6.2143224E-1,-6.370976E-1,1.0511465E0,1.3288294E0,1.3410087E0,1.3735351E-1,-1.2927173E-1,-5.4861214E-2,-3.4740704E-4,9.335823E-2,2.4723702E-3,-1.326863E-1,-1.7130457E-1,1.097873E-1,1.3325804E-1,-1.0472111E-1,1.341416E-1,-8.494008E-2],"categories":[],"categories_nodes":[],"categories_segments":[],"categories_sizes":[],"default_left":[0,0,0,0,0,0,0,0,0,0,0,0,0,0,0,0,0,0,0,0,0,0,0,0,0,0,0,0,0],"id":7,"left_children":[1,-1,3,5,7,9,11,13,15,17,-1,19,21,23,25,27,-1,-1,-1,-1,-1,-1,-1,-1,-1,-1,-1,-1,-1],"loss_changes":[2.1140069E5,0E0,1.949375E3,4.3885953E2,5.6085938E1,1.5811676E1,2.0477283E2,7.4978516E1,6.21875E0,2.5381546E1,0E0,1.7591187E2,6.9004684E1,1.7476868E2,3.566455E1,9.359375E0,0E0,0E0,0E0,0E0,0E0,0E0,0E0,0E0,0E0,0E0,0E0,0E0,0E0],"parents":[2147483647,0,0,2,2,3,3,4,4,5,5,6,6,7,7,8,8,9,9,11,11,12,12,13,13,14,14,15,15],"right_children":[2,-1,4,6,8,10,12,14,16,18,-1,20,22,24,26,28,-1,-1,-1,-1,-1,-1,-1,-1,-1,-1,-1,-1,-1],"split_conditions":[4.787234E-1,-1.2650138E-1,2.3131792E-3,6.803538E-2,2.2281056E-2,3.499009E-3,1.6353439E-1,1.7795153E-1,5.4294117E-2,6.393212E-1,-1.3279223E-1,2.2548535E-1,1.3005257E-1,5.583256E-1,4.692801E-1,5.6902206E-1,1.3735351E-1,-1.2927173E-1,-5.4861214E-2,-3.4740704E-4,9.335823E-2,2.4723702E-3,-1.326863E-1,-1.7130457E-1,1.097873E-1,1.3325804E-1,-1.0472111E-1,1.341416E-1,-8.494008E-2],"split_indices":[1,0,2,4,2,4,4,0,2,1,0,3,3,1,0,0,0,0,0,0,0,0,0,0,0,0,0,0,0],"split_type":[0,0,0,0,0,0,0,0,0,0,0,0,0,0,0,0,0,0,0,0,0,0,0,0,0,0,0,0,0],"sum_hessian":[1.2555425E5,6.479044E4,6.076381E4,1.3428151E3,5.9420992E4,2.9193033E2,1.0508846E3,5.181544E3,5.423945E4,2.1251718E2,7.941315E1,9.0079675E2,1.5008797E2,1.3375494E3,3.8439946E3,9.212425E3,4.5027023E4,6.846758E1,1.440496E2,3.004007E2,6.00396E2,7.708757E1,7.30004E1,2.1641521E1,1.315908E3,3.8383743E3,5.6204305E0,9.2111E3,1.3247832E0],"tree_param":{"num_deleted":"0","num_feature":"5","num_nodes":"29","size_leaf_vector":"1"}},{"base_weights":[-8.564262E-3,-1.23351954E-1,1.2804809E0,1.2823261E-1,1.3075914E0,-8.934417E-1,4.0405408E-1,1.2009263E0,1.3178407E0,-1.2964861E-1,-7.455956E-1,6.182545E-1,-3.878895E-1,9.0252054E-1,1.2510197E0,1.2886338E0,1.3238026E-1,2.7534282E-2,-9.6014746E-2,-1.2687364E-1,6.9633566E-2,6.1419275E-2,-1.4466123E-1,1.0388382E-1,-6.194508E-2,1.2882982E-1,9.891816E-2,1.2890403E-1,-8.157306E-2],"categories":[],"categories_nodes":[],"categories_segments":[],"categories_sizes":[],"default_left":[0,0,0,0,0,0,0,0,0,0,0,0,0,0,0,0,0,0,0,0,0,0,0,0,0,0,0,0,0],"id":8,"left_children":[1,-1,3,5,7,9,11,13,15,-1,17,19,21,23,25,27,-1,-1,-1,-1,-1,-1,-1,-1,-1,-1,-1,-1,-1],"loss_changes":[1.8491081E5,0E0,1.7822656E3,3.7029953E2,5.9359375E1,1.5681198E1,1.7570839E2,7.2092285E1,7.15625E0,0E0,4.5552742E1,1.2089981E2,2.3517148E2,1.474682E2,3.96416E1,8.458008E0,0E0,0E0,0E0,0E0,0E0,0E0,0E0,0E0,0E0,0E0,0E0,0E0,0E0],"parents":[2147483647,0,0,2,2,3,3,4,4,5,5,6,6,7,7,8,8,10,10,11,11,12,12,13,13,14,14,15,15],"right_children":[2,-1,4,6,8,10,12,14,16,-1,18,20,22,24,26,28,-1,-1,-1,-1,-1,-1,-1,-1,-1,-1,-1,-1,-1],"split_conditions":[4.787234E-1,-1.23351954E-1,2.3131792E-3,6.803538E-2,2.2281056E-2,1.1828062E-1,1.5218782E-1,1.10129304E-1,5.4294117E-2,-1.2964861E-1,1.3005257E-1,5.219459E-1,6.808436E-1,2.1276595E-2,1.5586987E-1,5.6902206E-1,1.3238026E-1,2.7534282E-2,-9.6014746E-2,-1.2687364E-1,6.9633566E-2,6.1419275E-2,-1.4466123E-1,1.0388382E-1,-6.194508E-2,1.2882982E-1,9.891816E-2,1.2890403E-1,-8.157306E-2],"split_indices":[1,0,2,4,2,3,4,0,2,0,3,1,1,2,4,0,0,0,0,0,0,0,0,0,0,0,0,0,0],"split_type":[0,0,0,0,0,0,0,0,0,0,0,0,0,0,0,0,0,0,0,0,0,0,0,0,0,0,0,0,0],"sum_hessian":[1.1710259E5,6.0043977E4,5.705862E4,1.3117712E3,5.5746848E4,2.7838016E2,1.0333911E3,4.8973926E3,5.0849457E4,7.262564E1,2.0575452E2,8.135626E2,2.1982848E2,7.0668604E2,4.1907065E3,8.65681E3,4.2192645E4,3.568156E1,1.7007295E2,3.1720589E1,7.8184204E2,1.131509E2,1.06677574E2,6.4888513E2,5.780091E1,3.6649922E3,5.257141E2,8.655525E3,1.2848489E0],"tree_param":{"num_deleted":"0","num_feature":"5","num_nodes":"29","size_leaf_vector":"1"}},{"base_weights":[-8.691184E-3,-1.2064167E-1,1.2367193E0,1.1747507E-1,1.2642062E0,-8.7504023E-1,3.6841032E-1,1.0912592E0,1.2717389E0,-6.955E-1,-1.4137753E0,-1.2686117E-1,4.613974E-1,1.3037373E-1,7.4193835E-1,1.234277E0,1.2817364E0,-8.914225E-2,-4.0383083E-3,-1.1931398E-1,-1.6327117E-1,1.1820995E-1,2.4973972E-2,-1.6362296E-1,1.0879375E-1,1.0906364E-1,1.2446908E-1,1.2741923E-1,1.2879224E-1],"categories":[],"categories_nodes":[],"categories_segments":[],"categories_sizes":[],"default_left":[0,0,0,0,0,0,0,0,0,0,0,0,0,0,0,0,0,0,0,0,0,0,0,0,0,0,0,0,0],"id":9,"left_children":[1,-1,3,5,7,9,11,13,15,17,19,-1,21,-1,23,25,27,-1,-1,-1,-1,-1,-1,-1,-1,-1,-1,-1,-1],"loss_changes":[1.6237064E5,0E0,1.6415547E3,3.1917105E2,6.646875E1,2.403476E1,1.5624301E2,1.6090674E2,1.7109375E1,2.511689E1,1.1282349E0,0E0,1.4741766E2,0E0,6.824071E2,1.4407227E1,1.9921875E-1,0E0,0E0,0E0,0E0,0E0,0E0,0E0,0E0,0E0,0E0,0E0,0E0],"parents":[2147483647,0,0,2,2,3,3,4,4,5,5,6,6,7,7,8,8,9,9,10,10,12,12,14,14,15,15,16,16],"right_children":[2,-1,4,6,8,10,12,14,16,18,20,-1,22,-1,24,26,28,-1,-1,-1,-1,-1,-1,-1,-1,-1,-1,-1,-1],"split_conditions":[4.787234E-1,-1.2064167E-1,2.3131792E-3,2.2129446E-2,1.1175785E-2,3.499009E-3,5.219459E-1,1.0638298E-2,5.4294117E-2,2.6423952E-1,6.803538E-2,-1.2686117E-1,6.808436E-1,1.3037373E-1,1.9641809E-1,5.583256E-1,2.038317E-1,-8.914225E-2,-4.0383083E-3,-1.1931398E-1,-1.6327117E-1,1.1820995E-1,2.4973972E-2,-1.6362296E-1,1.0879375E-1,1.0906364E-1,1.2446908E-1,1.2741923E-1,1.2879224E-1],"split_indices":[1,0,2,0,2,4,1,2,2,3,4,0,1,0,0,1,2,0,0,0,0,0,0,0,0,0,0,0,0],"split_type":[0,0,0,0,0,0,0,0,0,0,0,0,0,0,0,0,0,0,0,0,0,0,0,0,0,0,0,0,0],"sum_hessian":[1.0885031E5,5.5487438E4,5.3362875E4,1.2792233E3,5.2083652E4,2.5765247E2,1.0215708E3,2.1799133E3,4.990374E4,1.9496796E2,6.2684513E1,5.422935E1,9.6734143E2,1.3537493E3,8.2616406E2,1.0538576E4,3.936516E4,1.4980566E2,4.5162304E1,3.44335E1,2.8251017E1,2.1855817E2,7.4878326E2,1.0445828E2,7.2170575E2,7.1953735E2,9.819039E3,1.7828988E4,2.1536174E4],"tree_param":{"num_deleted":"0","num_feature":"5","num_nodes":"29","size_leaf_vector":"1"}},{"base_weights":[-8.7775225E-3,-1.18295394E-1,1.1986151E0,1.0708291E-1,1.2268757E0,-8.1456727E-1,3.4282342E-1,1.1056763E0,1.2387428E0,-6.522212E-1,-1.2497693E-1,5.444066E-1,-4.0264165E-1,8.882209E-1,1.1835386E0,1.2044941E0,1.2457875E0,-1.2055192E-1,-4.0397316E-2,-1.6770735E-1,5.999864E-2,5.017094E-2,-1.375897E-1,9.225721E-2,-3.052946E-1,1.1899755E-1,-5.238394E-2,1.0707792E-1,1.21415794E-1,1.2378686E-1,1.2522864E-1],"categories":[],"categories_nodes":[],"categories_segments":[],"categories_sizes":[],"default_left":[0,0,0,0,0,0,0,0,0,0,0,0,0,0,0,0,0,0,0,0,0,0,0,0,0,0,0,0,0,0,0],"id":10,"left_children":[1,-1,3,5,7,9,11,13,15,17,-1,19,21,23,25,27,29,-1,-1,-1,-1,-1,-1,-1,-1,-1,-1,-1,-1,-1,-1],"loss_changes":[1.4304194E5,0E0,1.534375E3,2.7328595E2,6.836719E1,1.7288345E1,1.506879E2,7.232617E1,9.15625E0,2.5432884E1,0E0,9.837352E1,1.8878662E2,1.5805103E2,3.566211E1,8.472656E0,3.359375E-1,0E0,0E0,0E0,0E0,0E0,0E0,0E0,0E0,0E0,0E0,0E0,0E0,0E0,0E0],"parents":[2147483647,0,0,2,2,3,3,4,4,5,5,6,6,7,7,8,8,9,9,11,11,12,12,13,13,14,14,15,15,16,16],"right_children":[2,-1,4,6,8,10,12,14,16,18,-1,20,22,24,26,28,30,-1,-1,-1,-1,-1,-1,-1,-1,-1,-1,-1,-1,-1,-1],"split_conditions":[4.787234E-1,-1.18295394E-1,2.3131792E-3,6.803538E-2,2.2281056E-2,3.499009E-3,1.5218782E-1,1.7795153E-1,5.4294117E-2,6.393212E-1,-1.2497693E-1,2.2129446E-2,6.808436E-1,3.3273542E-1,4.5652175E-1,5.583256E-1,2.038317E-1,-1.2055192E-1,-4.0397316E-2,-1.6770735E-1,5.999864E-2,5.017094E-2,-1.375897E-1,9.225721E-2,-3.052946E-1,1.1899755E-1,-5.238394E-2,1.0707792E-1,1.21415794E-1,1.2378686E-1,1.2522864E-1],"split_indices":[1,0,2,4,2,4,4,0,2,1,0,0,1,3,0,1,2,0,0,0,0,0,0,0,0,0,0,0,0,0,0],"split_type":[0,0,0,0,0,0,0,0,0,0,0,0,0,0,0,0,0,0,0,0,0,0,0,0,0,0,0,0,0,0,0],"sum_hessian":[1.0089576E5,5.1151492E4,4.974426E4,1.2555305E3,4.848873E4,2.5522977E2,1.0003007E3,4.332748E3,4.4155984E4,1.8770697E2,6.75228E1,7.875948E2,2.127059E2,1.1456255E3,3.1871226E3,7.562361E3,3.659362E4,5.6940723E1,1.3076625E2,1.8511965E1,7.690828E2,1.1050703E2,1.02198875E2,1.1364858E3,9.139693E0,3.1754539E3,1.1668735E1,5.1724646E2,7.0451143E3,1.6581158E4,2.0012463E4],"tree_param":{"num_deleted":"0","num_feature":"5","num_nodes":"31","size_leaf_vector":"1"}},{"base_weights":[-8.869504E-3,-1.1625383E-1,1.1650882E0,9.776787E-2,1.1941607E0,-7.726125E-1,3.1376827E-1,9.9970776E-1,1.2028347E0,-6.123243E-1,-1.21816754E-1,-1.2510361E-1,4.002962E-1,1.2381586E-1,6.2414753E-1,1.1585393E0,1.2147847E0,-1.1785664E-1,-3.720654E-2,1.03475474E-1,2.135695E-2,-1.5007208E-1,9.8176084E-2,1.0018404E-1,1.170082E-1,1.2063872E-1,1.2216836E-1],"categories":[],"categories_nodes":[],"categories_segments":[],"categories_sizes":[],"default_left":[0,0,0,0,0,0,0,0,0,0,0,0,0,0,0,0,0,0,0,0,0,0,0,0,0,0,0],"id":11,"left_children":[1,-1,3,5,7,9,11,13,15,17,-1,-1,19,-1,21,23,25,-1,-1,-1,-1,-1,-1,-1,-1,-1,-1],"loss_changes":[1.2635913E5,0E0,1.4347773E3,2.309739E2,7.472656E1,1.6701538E1,1.337304E2,1.7190625E2,2.1394531E1,2.4277893E1,0E0,0E0,1.1033244E2,0E0,5.720287E2,1.5425781E1,4.8828125E-1,0E0,0E0,0E0,0E0,0E0,0E0,0E0,0E0,0E0,0E0],"parents":[2147483647,0,0,2,2,3,3,4,4,5,5,6,6,7,7,8,8,9,9,12,12,14,14,15,15,16,16],"right_children":[2,-1,4,6,8,10,12,14,16,18,-1,-1,20,-1,22,24,26,-1,-1,-1,-1,-1,-1,-1,-1,-1,-1],"split_conditions":[4.787234E-1,-1.1625383E-1,2.3131792E-3,6.803538E-2,1.1175785E-2,3.499009E-3,5.219459E-1,1.0638298E-2,5.4294117E-2,6.393212E-1,-1.21816754E-1,-1.2510361E-1,6.808436E-1,1.2381586E-1,1.9641809E-1,5.583256E-1,2.038317E-1,-1.1785664E-1,-3.720654E-2,1.03475474E-1,2.135695E-2,-1.5007208E-1,9.8176084E-2,1.0018404E-1,1.170082E-1,1.2063872E-1,1.2216836E-1],"split_indices":[1,0,2,4,2,4,1,2,2,1,0,0,1,0,0,1,2,0,0,0,0,0,0,0,0,0,0],"split_type":[0,0,0,0,0,0,0,0,0,0,0,0,0,0,0,0,0,0,0,0,0,0,0,0,0,0,0],"sum_hessian":[9.329616E4,4.7054695E4,4.6241465E4,1.2262788E3,4.5015184E4,2.4330336E2,9.8297546E2,1.9272421E3,4.308794E4,1.8067862E2,6.2624744E1,5.080161E1,9.321738E2,1.1773939E3,7.498481E2,9.175284E3,3.391266E4,5.2661243E1,1.2801738E2,2.1093138E2,7.2124243E2,1.0755871E2,6.4228937E2,6.355216E2,8.539762E3,1.5374522E4,1.8538137E4],"tree_param":{"num_deleted":"0","num_feature":"5","num_nodes":"27","size_leaf_vector":"1"}},{"base_weights":[-8.930562E-3,-1.14469506E-1,1.1353474E0,8.91748E-2,1.1655103E0,-7.530698E-1,2.8552696E-1,1.0267978E0,1.1793989E0,-5.744173E-1,-1.3223617E0,-1.4154862E-1,5.6269896E-1,6.033231E-1,1.0730462E0,1.1388111E0,1.187826E0,-1.15484335E-1,-3.4225848E-2,-1.116782E-1,-1.4866532E-1,-1.997475E-1,1.5186432E-2,-1.0454855E-1,7.767848E-2,8.49826E-2,-1.4342318E-1,1.120433E-1,6.5461315E-2,9.936361E-2,1.149533E-1,1.1788503E-1,1.1952092E-1],"categories":[],"categories_nodes":[],"categories_segments":[],"categories_sizes":[],"default_left":[0,0,0,0,0,0,0,0,0,0,0,0,0,0,0,0,0,0,0,0,0,0,0,0,0,0,0,0,0,0,0,0,0],"id":12,"left_children":[1,-1,3,5,7,9,11,13,15,17,19,21,23,25,27,29,31,-1,-1,-1,-1,-1,-1,-1,-1,-1,-1,-1,-1,-1,-1,-1,-1],"loss_changes":[1.1188944E5,0E0,1.3531914E3,1.9914719E2,7.909375E1,2.239775E1,1.1563741E2,7.380493E1,1.16015625E1,2.3195961E1,1.5067291E-1,2.0996126E2,2.0470195E2,1.9035883E2,6.719629E1,9.033203E0,6.6796875E-1,0E0,0E0,0E0,0E0,0E0,0E0,0E0,0E0,0E0,0E0,0E0,0E0,0E0,0E0,0E0,0E0],"parents":[2147483647,0,0,2,2,3,3,4,4,5,5,6,6,7,7,8,8,9,9,10,10,11,11,12,12,13,13,14,14,15,15,16,16],"right_children":[2,-1,4,6,8,10,12,14,16,18,20,22,24,26,28,30,32,-1,-1,-1,-1,-1,-1,-1,-1,-1,-1,-1,-1,-1,-1,-1,-1],"split_conditions":[4.787234E-1,-1.14469506E-1,2.3131792E-3,2.2129446E-2,2.2281056E-2,3.499009E-3,2.2548535E-1,7.499033E-2,5.4294117E-2,6.393212E-1,6.803538E-2,1.10129304E-1,1.1446891E-1,2.1276595E-2,1.758208E-1,5.583256E-1,2.038317E-1,-1.15484335E-1,-3.4225848E-2,-1.116782E-1,-1.4866532E-1,-1.997475E-1,1.5186432E-2,-1.0454855E-1,7.767848E-2,8.49826E-2,-1.4342318E-1,1.120433E-1,6.5461315E-2,9.936361E-2,1.149533E-1,1.1788503E-1,1.1952092E-1],"split_indices":[1,0,2,0,2,4,3,4,2,1,4,0,4,2,4,1,2,0,0,0,0,0,0,0,0,0,0,0,0,0,0,0,0],"split_type":[0,0,0,0,0,0,0,0,0,0,0,0,0,0,0,0,0,0,0,0,0,0,0,0,0,0,0,0,0,0,0,0,0],"sum_hessian":[8.609129E4,4.320637E4,4.2884914E4,1.2019043E3,4.1683008E4,2.2669028E2,9.7521405E2,3.800501E3,3.7882508E4,1.7407263E2,5.261765E1,3.840093E2,5.912047E2,3.755756E2,3.4249253E3,6.5365093E3,3.1346E4,4.859778E1,1.2547485E2,2.683556E1,2.578209E1,5.1629467E1,3.3237985E2,6.9000275E1,5.2220447E2,3.355623E2,4.001331E1,3.0750083E3,3.49917E2,4.5599728E2,6.080512E3,1.4219646E4,1.7126354E4],"tree_param":{"num_deleted":"0","num_feature":"5","num_nodes":"33","size_leaf_vector":"1"}},{"base_weights":[-8.997592E-3,-1.12903975E-1,1.1083745E0,8.120694E-2,1.1398087E0,-7.1197796E-1,2.60672E-1,1.0192257E0,1.1585317E0,-5.3832805E-1,-1.2830655E-1,4.3556264E-1,-4.160061E-1,4.0044653E-1,1.0493981E0,1.1256795E0,1.1653547E0,-1.1900099E-1,-3.2679673E-2,7.0784027E-3,9.561022E-2,4.0941037E-2,-1.326244E-1,-2.3367397E-1,6.3303225E-2,7.495922E-2,1.0782993E-1,1.1341435E-1,4.4222344E-2,1.1579553E-1,1.1738955E-1],"categories":[],"categories_nodes":[],"categories_segments":[],"categories_sizes":[],"default_left":[0,0,0,0,0,0,0,0,0,0,0,0,0,0,0,0,0,0,0,0,0,0,0,0,0,0,0,0,0,0,0],"id":13,"left_children":[1,-1,3,5,7,9,11,13,15,17,-1,19,21,23,25,27,29,-1,-1,-1,-1,-1,-1,-1,-1,-1,-1,-1,-1,-1,-1],"loss_changes":[9.926256E4,0E0,1.2818906E3,1.6816711E2,8.580469E1,2.0928604E1,1.1415469E2,9.640625E1,6.1601562E0,2.2893486E1,0E0,1.4533684E2,1.4953114E2,1.5601782E2,4.203418E1,3.2836914E1,3.7890625E-1,0E0,0E0,0E0,0E0,0E0,0E0,0E0,0E0,0E0,0E0,0E0,0E0,0E0,0E0],"parents":[2147483647,0,0,2,2,3,3,4,4,5,5,6,6,7,7,8,8,9,9,11,11,12,12,13,13,14,14,15,15,16,16],"right_children":[2,-1,4,6,8,10,12,14,16,18,-1,20,22,24,26,28,30,-1,-1,-1,-1,-1,-1,-1,-1,-1,-1,-1,-1,-1,-1],"split_conditions":[4.787234E-1,-1.12903975E-1,2.3131792E-3,2.2129446E-2,3.3085354E-2,3.499009E-3,1.5218782E-1,1.7485343E-3,6.433524E-2,1.1828062E-1,-1.2830655E-1,1.2608857E-1,6.808436E-1,6.393212E-1,6.4927304E-1,6.382979E-2,2.4630836E-1,-1.1900099E-1,-3.2679673E-2,7.0784027E-3,9.561022E-2,4.0941037E-2,-1.326244E-1,-2.3367397E-1,6.3303225E-2,7.495922E-2,1.0782993E-1,1.1341435E-1,4.4222344E-2,1.1579553E-1,1.1738955E-1],"split_indices":[1,0,2,0,2,4,4,4,2,3,0,4,1,1,1,2,2,0,0,0,0,0,0,0,0,0,0,0,0,0,0],"split_type":[0,0,0,0,0,0,0,0,0,0,0,0,0,0,0,0,0,0,0,0,0,0,0,0,0,0,0,0,0,0,0],"sum_hessian":[7.931262E4,3.9608977E4,3.970364E4,1.1790682E3,3.8524574E4,2.1700412E2,9.6206415E2,5.1852227E3,3.3339348E4,1.678951E2,4.910903E1,7.647637E2,1.9730046E2,2.4174455E2,4.943478E3,5.7620522E3,2.7577297E4,4.0009346E1,1.2788574E2,4.5032516E2,3.144385E2,1.0375982E2,9.3540634E1,1.8224354E1,2.235202E2,4.3701852E2,4.50646E3,5.6909155E3,7.113658E1,1.4849074E4,1.2728224E4],"tree_param":{"num_deleted":"0","num_feature":"5","num_nodes":"31","size_leaf_vector":"1"}},{"base_weights":[-9.065948E-3,-1.11525774E-1,1.0839247E0,7.4235044E-2,1.1167073E0,-1.18892334E-1,1.8056856E-1,9.560881E-1,1.1332322E0,-1.4589463E-1,5.4580003E-1,7.032836E-1,1.0518341E0,1.0848197E0,1.1433924E0,6.430847E-2,-6.180023E-2,6.7146234E-2,-1.3264565E-1,7.425388E-2,-2.608994E-1,1.0603229E-1,-7.94874E-2,9.2074685E-2,1.0971715E-1,1.1329806E-1,1.1519833E-1],"categories":[],"categories_nodes":[],"categories_segments":[],"categories_sizes":[],"default_left":[0,0,0,0,0,0,0,0,0,0,0,0,0,0,0,0,0,0,0,0,0,0,0,0,0,0,0],"id":14,"left_children":[1,-1,3,5,7,-1,9,11,13,15,17,19,21,23,25,-1,-1,-1,-1,-1,-1,-1,-1,-1,-1,-1,-1],"loss_changes":[8.8212414E4,0E0,1.2146602E3,1.5536865E2,9.326172E1,0E0,1.27221725E2,7.967383E1,1.4605469E1,2.1041501E2,1.1934726E2,1.2098932E2,3.8584473E1,1.0357422E1,1.078125E0,0E0,0E0,0E0,0E0,0E0,0E0,0E0,0E0,0E0,0E0,0E0,0E0],"parents":[2147483647,0,0,2,2,3,3,4,4,6,6,7,7,8,8,9,9,10,10,11,11,12,12,13,13,14,14],"right_children":[2,-1,4,6,8,-1,10,12,14,16,18,20,22,24,26,-1,-1,-1,-1,-1,-1,-1,-1,-1,-1,-1,-1],"split_conditions":[4.787234E-1,-1.11525774E-1,2.3131792E-3,5.583256E-1,2.2281056E-2,-1.18892334E-1,1.9641809E-1,1.7795153E-1,5.4294117E-2,6.808436E-1,2.883596E-1,3.3273542E-1,4.5652175E-1,5.583256E-1,2.038317E-1,6.430847E-2,-6.180023E-2,6.7146234E-2,-1.3264565E-1,7.425388E-2,-2.608994E-1,1.0603229E-1,-7.94874E-2,9.2074685E-2,1.0971715E-1,1.1329806E-1,1.1519833E-1],"split_indices":[1,0,2,1,2,0,0,0,2,1,0,3,0,1,2,0,0,0,0,0,0,0,0,0,0,0,0],"split_type":[0,0,0,0,0,0,0,0,0,0,0,0,0,0,0,0,0,0,0,0,0,0,0,0,0,0,0],"sum_hessian":[7.295767E4,3.625985E4,3.669782E4,1.1541407E3,3.554368E4,8.882218E1,1.0653186E3,3.3211865E3,3.2222492E4,5.62831E2,5.0248758E2,9.1461414E2,2.4065723E3,5.608128E3,2.6614365E4,2.1056903E2,3.52262E2,4.7148386E2,3.100374E1,9.0466833E2,9.945796E0,2.3959846E3,1.0587773E1,3.979276E2,5.2102E3,1.2091986E4,1.4522379E4],"tree_param":{"num_deleted":"0","num_feature":"5","num_nodes":"27","size_leaf_vector":"1"}},{"base_weights":[-9.134469E-3,-1.1030888E-1,1.0614113E0,6.797047E-2,1.0956376E0,-1.1659288E-1,1.6554832E-1,9.231939E-1,1.1136817E0,-1.3279296E-1,5.041795E-1,6.6445106E-1,1.0240219E0,1.06075E0,1.1248565E0,5.8683045E-2,-5.6227475E-2,6.189772E-2,-1.2886827E-1,-1.7043315E-1,7.2182804E-2,1.0573292E-1,4.634508E-2,9.5904484E-2,1.0838286E-1,1.1135619E-1,1.1341923E-1],"categories":[],"categories_nodes":[],"categories_segments":[],"categories_sizes":[],"default_left":[0,0,0,0,0,0,0,0,0,0,0,0,0,0,0,0,0,0,0,0,0,0,0,0,0,0,0],"id":15,"left_children":[1,-1,3,5,7,-1,9,11,13,15,17,19,21,23,25,-1,-1,-1,-1,-1,-1,-1,-1,-1,-1,-1,-1],"loss_changes":[7.850336E4,0E0,1.1518555E3,1.3617235E2,1.0087891E2,0E0,1.0589273E2,8.040625E1,1.6339844E1,1.7268512E2,1.01817955E2,1.2007422E2,4.1235107E1,1.1130859E1,1.3183594E0,0E0,0E0,0E0,0E0,0E0,0E0,0E0,0E0,0E0,0E0,0E0,0E0],"parents":[2147483647,0,0,2,2,3,3,4,4,6,6,7,7,8,8,9,9,10,10,11,11,12,12,13,13,14,14],"right_children":[2,-1,4,6,8,-1,10,12,14,16,18,20,22,24,26,-1,-1,-1,-1,-1,-1,-1,-1,-1,-1,-1,-1],"split_conditions":[4.787234E-1,-1.1030888E-1,2.3131792E-3,5.583256E-1,2.2281056E-2,-1.1659288E-1,1.9641809E-1,1.7795153E-1,5.4294117E-2,6.808436E-1,2.883596E-1,5.583256E-1,2.5161746E-1,4.6927925E-2,2.038317E-1,5.8683045E-2,-5.6227475E-2,6.189772E-2,-1.2886827E-1,-1.7043315E-1,7.2182804E-2,1.0573292E-1,4.634508E-2,9.5904484E-2,1.0838286E-1,1.1135619E-1,1.1341923E-1],"split_indices":[1,0,2,1,2,0,0,0,2,1,0,1,4,0,2,0,0,0,0,0,0,0,0,0,0,0,0],"split_type":[0,0,0,0,0,0,0,0,0,0,0,0,0,0,0,0,0,0,0,0,0,0,0,0,0,0,0],"sum_hessian":[6.7030266E4,3.315266E4,3.38776E4,1.1283849E3,3.2749219E4,8.189179E1,1.0464932E3,3.1071392E3,2.9642078E4,5.566662E2,4.8982697E2,8.734078E2,2.2337314E3,5.183847E3,2.4458232E4,2.0791885E2,3.487473E2,4.6096588E2,2.8861094E1,1.9976667E1,8.534311E2,2.1076174E3,1.2611405E2,9.666146E2,4.2172324E3,1.1122307E4,1.3335925E4],"tree_param":{"num_deleted":"0","num_feature":"5","num_nodes":"27","size_leaf_vector":"1"}},{"base_weights":[-9.2013385E-3,-1.09231554E-1,1.040537E0,6.2177513E-2,1.0763613E0,-1.145569E-1,1.5172334E-1,9.26237E-1,1.1006169E0,-4.691573E-1,2.978846E-1,2.5857317E-1,9.613438E-1,1.0574759E0,1.1097102E0,-3.1134544E-2,-1.5814255E-1,9.476104E-2,1.4449947E-2,-2.2870114E-1,4.9280725E-2,6.1096918E-2,9.965881E-2,1.0680463E-1,2.4384586E-2,1.10027865E-1,1.1206452E-1],"categories":[],"categories_nodes":[],"categories_segments":[],"categories_sizes":[],"default_left":[0,0,0,0,0,0,0,0,0,0,0,0,0,0,0,0,0,0,0,0,0,0,0,0,0,0,0],"id":16,"left_children":[1,-1,3,5,7,-1,9,11,13,15,17,19,21,23,25,-1,-1,-1,-1,-1,-1,-1,-1,-1,-1,-1,-1],"loss_changes":[6.9949305E4,0E0,1.0949414E3,1.1963904E2,1.0872656E2,0E0,9.3545044E1,9.8161865E1,9.003906E0,3.4002346E1,8.295372E1,1.2699982E2,4.864258E1,3.8760742E1,9.746094E-1,0E0,0E0,0E0,0E0,0E0,0E0,0E0,0E0,0E0,0E0,0E0,0E0],"parents":[2147483647,0,0,2,2,3,3,4,4,6,6,7,7,8,8,9,9,10,10,11,11,12,12,13,13,14,14],"right_children":[2,-1,4,6,8,-1,10,12,14,16,18,20,22,24,26,-1,-1,-1,-1,-1,-1,-1,-1,-1,-1,-1,-1],"split_conditions":[4.787234E-1,-1.09231554E-1,2.3131792E-3,5.583256E-1,3.3085354E-2,-1.145569E-1,4.6927925E-2,1.7485343E-3,6.433524E-2,1.24636054E-1,6.808436E-1,6.393212E-1,6.4927304E-1,6.382979E-2,2.4630836E-1,-3.1134544E-2,-1.5814255E-1,9.476104E-2,1.4449947E-2,-2.2870114E-1,4.9280725E-2,6.1096918E-2,9.965881E-2,1.0680463E-1,2.4384586E-2,1.10027865E-1,1.1206452E-1],"split_indices":[1,0,2,1,2,0,0,4,2,4,1,1,1,2,2,0,0,0,0,0,0,0,0,0,0,0,0],"split_type":[0,0,0,0,0,0,0,0,0,0,0,0,0,0,0,0,0,0,0,0,0,0,0,0,0,0,0],"sum_hessian":[6.1519676E4,3.0278475E4,3.1241203E4,1.1036389E3,3.0137564E4,7.536485E1,1.028274E3,4.1974917E3,2.5940072E4,1.9551845E2,8.327557E2,2.1010286E2,3.987389E3,4.5362026E3,2.140387E4,1.7234547E2,2.3172966E1,1.5805803E2,6.7469763E2,1.6965305E1,1.9313754E2,3.6610938E2,3.6212795E3,4.4777173E3,5.8485413E1,1.15465E4,9.85737E3],"tree_param":{"num_deleted":"0","num_feature":"5","num_nodes":"27","size_leaf_vector":"1"}},{"base_weights":[-9.27134E-3,-1.0827561E-1,1.0206902E0,5.657441E-2,1.0584433E0,-1.1274346E-1,1.3831298E-1,7.624165E-1,1.0728215E0,-1.3447629E-1,4.4883654E-1,1.1279922E-1,2.298072E-1,1.0004008E0,1.0933449E0,5.102713E-2,-5.1032294E-2,5.545127E-2,-1.2582408E-1,-1.8661787E-1,6.978663E-2,1.1373415E-1,9.7007014E-2,1.0799819E-1,1.1044375E-1],"categories":[],"categories_nodes":[],"categories_segments":[],"categories_sizes":[],"default_left":[0,0,0,0,0,0,0,0,0,0,0,0,0,0,0,0,0,0,0,0,0,0,0,0,0],"id":17,"left_children":[1,-1,3,5,7,-1,9,11,13,15,17,-1,19,21,23,-1,-1,-1,-1,-1,-1,-1,-1,-1,-1],"loss_changes":[6.2383625E4,0E0,1.0480352E3,1.0527097E2,1.1712305E2,0E0,8.619804E1,2.503313E2,3.818164E1,1.3162598E2,8.6527435E1,0E0,5.164352E2,2.3180176E1,1.8574219E0,0E0,0E0,0E0,0E0,0E0,0E0,0E0,0E0,0E0,0E0],"parents":[2147483647,0,0,2,2,3,3,4,4,6,6,7,7,8,8,9,9,10,10,12,12,13,13,14,14],"right_children":[2,-1,4,6,8,-1,10,12,14,16,18,-1,20,22,24,-1,-1,-1,-1,-1,-1,-1,-1,-1,-1],"split_conditions":[4.787234E-1,-1.0827561E-1,2.3131792E-3,5.583256E-1,1.1175785E-2,-1.1274346E-1,1.9641809E-1,1.0638298E-2,5.4294117E-2,6.808436E-1,2.883596E-1,1.1279922E-1,1.9641809E-1,2.1276595E-2,2.038317E-1,5.102713E-2,-5.1032294E-2,5.545127E-2,-1.2582408E-1,-1.8661787E-1,6.978663E-2,1.1373415E-1,9.7007014E-2,1.0799819E-1,1.1044375E-1],"split_indices":[1,0,2,1,2,0,0,2,2,1,0,0,0,2,2,0,0,0,0,0,0,0,0,0,0],"split_type":[0,0,0,0,0,0,0,0,0,0,0,0,0,0,0,0,0,0,0,0,0,0,0,0,0],"sum_hessian":[5.6420684E4,2.7626605E4,2.8794078E4,1.0851326E3,2.7708945E4,6.9248795E1,1.0158838E3,1.2860006E3,2.6422945E4,5.411023E2,4.7478152E2,7.6191486E2,5.240857E2,5.8455547E3,2.057739E4,1.99136E2,3.4196628E2,4.477395E2,2.7042025E1,9.512507E1,4.2896066E2,1.0533315E3,4.792223E3,9.3781E3,1.1199291E4],"tree_param":{"num_deleted":"0","num_feature":"5","num_nodes":"25","size_leaf_vector":"1"}},{"base_weights":[-9.312393E-3,-1.0742562E-1,1.0021917E0,5.1645555E-2,1.0418588E0,-1.1111861E-1,1.2666382E-1,8.694481E-1,1.070513E0,-4.904166E-1,2.4560355E-1,1.884953E-1,9.073671E-1,1.019399E0,1.0814456E0,-1.134182E-1,-2.5647482E-2,3.9598506E-2,-3.7543964E-2,-2.2087923E-1,4.1295525E-2,5.2637663E-2,9.4716094E-2,1.0316521E-1,1.3277384E-2,1.0674375E-1,1.0918917E-1],"categories":[],"categories_nodes":[],"categories_segments":[],"categories_sizes":[],"default_left":[0,0,0,0,0,0,0,0,0,0,0,0,0,0,0,0,0,0,0,0,0,0,0,0,0,0,0],"id":18,"left_children":[1,-1,3,5,7,-1,9,11,13,15,17,19,21,23,25,-1,-1,-1,-1,-1,-1,-1,-1,-1,-1,-1,-1],"loss_changes":[5.5694402E4,0E0,9.9977734E2,9.289604E1,1.2482422E2,0E0,7.34979E1,9.363501E1,1.1087891E1,2.4090736E1,7.849294E1,1.047059E2,5.16709E1,4.1825928E1,1.4648438E0,0E0,0E0,0E0,0E0,0E0,0E0,0E0,0E0,0E0,0E0,0E0,0E0],"parents":[2147483647,0,0,2,2,3,3,4,4,6,6,7,7,8,8,9,9,10,10,11,11,12,12,13,13,14,14],"right_children":[2,-1,4,6,8,-1,10,12,14,16,18,20,22,24,26,-1,-1,-1,-1,-1,-1,-1,-1,-1,-1,-1,-1],"split_conditions":[4.787234E-1,-1.0742562E-1,2.3131792E-3,5.583256E-1,3.3085354E-2,-1.1111861E-1,6.803538E-2,1.7485343E-3,6.433524E-2,1.1828062E-1,1.5218782E-1,6.393212E-1,6.4927304E-1,6.382979E-2,2.038317E-1,-1.134182E-1,-2.5647482E-2,3.9598506E-2,-3.7543964E-2,-2.2087923E-1,4.1295525E-2,5.2637663E-2,9.4716094E-2,1.0316521E-1,1.3277384E-2,1.0674375E-1,1.0918917E-1],"split_indices":[1,0,2,1,2,0,4,4,2,3,4,1,1,2,2,0,0,0,0,0,0,0,0,0,0,0,0],"split_type":[0,0,0,0,0,0,0,0,0,0,0,0,0,0,0,0,0,0,0,0,0,0,0,0,0,0,0],"sum_hessian":[5.1701176E4,2.5185264E4,2.6515912E4,1.0622979E3,2.5453615E4,6.3542088E1,9.9875574E2,3.6319211E3,2.1821693E4,1.608927E2,8.3786304E2,1.9189114E2,3.4400298E3,3.8615754E3,1.796012E4,4.185825E1,1.19034454E2,6.7482184E2,1.6304123E2,1.5671817E1,1.7621931E2,3.2667075E2,3.1133591E3,3.8087747E3,5.2800747E1,7.716088E3,1.024403E4],"tree_param":{"num_deleted":"0","num_feature":"5","num_nodes":"27","size_leaf_vector":"1"}},{"base_weights":[-9.395199E-3,-1.0666845E-1,9.8415285E-1,4.687205E-2,1.0259072E0,-1.09653965E-1,1.1565249E-1,8.4165865E-1,1.0571177E0,-7.698677E-2,4.8028192E-1,4.873406E-1,9.175369E-1,1.0011567E0,1.0691649E0,5.7734497E-2,-2.8431797E-2,7.672634E-2,-5.580461E-2,5.5583246E-2,-3.800667E-1,4.721779E-2,9.4884045E-2,1.0142485E-1,1.2104496E-2,1.0568918E-1,1.08347796E-1],"categories":[],"categories_nodes":[],"categories_segments":[],"categories_sizes":[],"default_left":[0,0,0,0,0,0,0,0,0,0,0,0,0,0,0,0,0,0,0,0,0,0,0,0,0,0,0],"id":19,"left_children":[1,-1,3,5,7,-1,9,11,13,15,17,19,21,23,25,-1,-1,-1,-1,-1,-1,-1,-1,-1,-1,-1,-1],"loss_changes":[4.974811E4,0E0,9.554453E2,8.2098595E1,1.3352148E2,0E0,6.916019E1,9.07124E1,1.2400391E1,8.763394E1,1.0183622E2,1.7838445E2,3.8469482E1,4.0846924E1,1.7421875E0,0E0,0E0,0E0,0E0,0E0,0E0,0E0,0E0,0E0,0E0,0E0,0E0],"parents":[2147483647,0,0,2,2,3,3,4,4,6,6,7,7,8,8,9,9,10,10,11,11,12,12,13,13,14,14],"right_children":[2,-1,4,6,8,-1,10,12,14,16,18,20,22,24,26,-1,-1,-1,-1,-1,-1,-1,-1,-1,-1,-1,-1],"split_conditions":[4.787234E-1,-1.0666845E-1,2.3131792E-3,5.583256E-1,3.3085354E-2,-1.09653965E-1,2.2296056E-1,1.10129304E-1,6.433524E-2,6.4451826E-1,3.3273542E-1,1.7181578E-1,6.4927304E-1,6.382979E-2,2.4630836E-1,5.7734497E-2,-2.8431797E-2,7.672634E-2,-5.580461E-2,5.5583246E-2,-3.800667E-1,4.721779E-2,9.4884045E-2,1.0142485E-1,1.2104496E-2,1.0568918E-1,1.08347796E-1],"split_indices":[1,0,2,1,2,0,0,0,2,1,3,4,1,2,2,0,0,0,0,0,0,0,0,0,0,0,0],"split_type":[0,0,0,0,0,0,0,0,0,0,0,0,0,0,0,0,0,0,0,0,0,0,0,0,0,0,0],"sum_hessian":[4.735606E4,2.2942064E4,2.4413992E4,1.0413099E3,2.3372682E4,5.8236637E1,9.8307324E2,3.3897207E3,1.998296E4,6.4375604E2,3.393172E2,5.991899E2,2.7905308E3,3.554725E3,1.6428236E4,1.5446957E2,4.8928647E2,2.6604623E2,7.327096E1,5.906262E2,8.56363E0,1.843169E2,2.6062139E3,3.5024731E3,5.225201E1,8.884728E3,7.5435083E3],"tree_param":{"num_deleted":"0","num_feature":"5","num_nodes":"27","size_leaf_vector":"1"}},{"base_weights":[-9.461587E-3,-1.0599287E-1,9.664053E-1,4.2951837E-2,1.0105137E0,-1.083255E-1,1.05805114E-1,7.6764053E-1,1.0381947E0,-1.22995E-1,3.708252E-1,8.5647094E-1,2.056975E-1,9.578544E-1,1.0559205E0,5.6688497E-3,-1.1372258E-1,5.494832E-2,-5.139592E-2,6.573372E-2,1.10384405E-1,-1.8659675E-1,4.7555633E-2,7.049059E-2,9.777863E-2,1.0385913E-1,1.07043065E-1],"categories":[],"categories_nodes":[],"categories_segments":[],"categories_sizes":[],"default_left":[0,0,0,0,0,0,0,0,0,0,0,0,0,0,0,0,0,0,0,0,0,0,0,0,0,0,0],"id":20,"left_children":[1,-1,3,5,7,-1,9,11,13,15,17,19,21,23,25,-1,-1,-1,-1,-1,-1,-1,-1,-1,-1,-1,-1],"loss_changes":[4.445661E4,0E0,9.1569336E2,7.2736275E1,1.4346094E2,0E0,5.9021767E1,1.09600464E2,2.6414062E1,9.532668E1,7.1556015E1,9.280286E1,1.6944325E2,1.6916016E1,2.8535156E0,0E0,0E0,0E0,0E0,0E0,0E0,0E0,0E0,0E0,0E0,0E0,0E0],"parents":[2147483647,0,0,2,2,3,3,4,4,6,6,7,7,8,8,9,9,10,10,11,11,12,12,13,13,14,14],"right_children":[2,-1,4,6,8,-1,10,12,14,16,18,20,22,24,26,-1,-1,-1,-1,-1,-1,-1,-1,-1,-1,-1,-1],"split_conditions":[4.787234E-1,-1.0599287E-1,2.3131792E-3,5.583256E-1,2.2281056E-2,-1.083255E-1,1.9641809E-1,2.1276595E-2,5.4294117E-2,1.5038407E-1,1.47655E-1,1.1175785E-2,7.499033E-2,5.583256E-1,2.038317E-1,5.6688497E-3,-1.1372258E-1,5.494832E-2,-5.139592E-2,6.573372E-2,1.10384405E-1,-1.8659675E-1,4.7555633E-2,7.049059E-2,9.777863E-2,1.0385913E-1,1.07043065E-1],"split_indices":[1,0,2,1,2,0,0,2,2,0,4,2,4,1,2,0,0,0,0,0,0,0,0,0,0,0,0],"split_type":[0,0,0,0,0,0,0,0,0,0,0,0,0,0,0,0,0,0,0,0,0,0,0,0,0,0,0],"sum_hessian":[4.336539E4,2.0884396E4,2.2480994E4,1.0249357E3,2.1456059E4,5.331956E1,9.716161E2,2.1981567E3,1.92579E4,5.2172797E2,4.4988812E2,1.8976564E3,3.005003E2,3.4908826E3,1.5767019E4,4.440102E2,7.771778E1,3.7462234E2,7.526577E1,1.0533632E3,8.442933E2,3.395077E1,2.6654953E2,2.5763986E2,3.2332427E3,7.2185527E3,8.548466E3],"tree_param":{"num_deleted":"0","num_feature":"5","num_nodes":"27","size_leaf_vector":"1"}},{"base_weights":[-9.525858E-3,-1.0538919E-1,9.489287E-1,3.9024662E-2,9.9561733E-1,-4.7998485E-1,1.7041643E-1,7.85277E-1,1.0327996E0,-3.4216323E-1,-1.507645E-1,2.193804E-1,-1.2048139E-1,4.071013E-1,8.7006646E-1,9.6613467E-1,1.0473728E0,-4.895592E-2,9.212045E-2,1.2144705E-1,1.5958508E-2,4.8685E-2,-3.582542E-1,3.820561E-2,9.059464E-2,9.8142385E-2,1.3521136E-3,1.0290356E-1,1.06115416E-1],"categories":[],"categories_nodes":[],"categories_segments":[],"categories_sizes":[],"default_left":[0,0,0,0,0,0,0,0,0,0,0,0,0,0,0,0,0,0,0,0,0,0,0,0,0,0,0,0,0],"id":21,"left_children":[1,-1,3,5,7,9,11,13,15,17,-1,19,-1,21,23,25,27,-1,-1,-1,-1,-1,-1,-1,-1,-1,-1,-1,-1],"loss_changes":[3.9743367E4,0E0,8.7950586E2,6.906224E1,1.5320898E2,2.8463749E1,5.466761E1,9.463794E1,1.5244141E1,3.428769E1,0E0,4.6276943E1,0E0,1.7496696E2,4.201062E1,4.389038E1,2.375E0,0E0,0E0,0E0,0E0,0E0,0E0,0E0,0E0,0E0,0E0,0E0,0E0],"parents":[2147483647,0,0,2,2,3,3,4,4,5,5,6,6,7,7,8,8,9,9,11,11,13,13,14,14,15,15,16,16],"right_children":[2,-1,4,6,8,10,12,14,16,18,-1,20,-1,22,24,26,28,-1,-1,-1,-1,-1,-1,-1,-1,-1,-1,-1,-1],"split_conditions":[4.787234E-1,-1.0538919E-1,2.3131792E-3,4.6927925E-2,3.3085354E-2,1.24636054E-1,2.883596E-1,1.10129304E-1,6.433524E-2,9.9338636E-2,-1.507645E-1,6.521739E-2,-1.2048139E-1,1.0869565E-1,6.4927304E-1,6.382979E-2,2.038317E-1,-4.895592E-2,9.212045E-2,1.2144705E-1,1.5958508E-2,4.8685E-2,-3.582542E-1,3.820561E-2,9.059464E-2,9.8142385E-2,1.3521136E-3,1.0290356E-1,1.06115416E-1],"split_indices":[1,0,2,0,2,4,0,0,2,4,0,0,0,0,1,2,2,0,0,0,0,0,0,0,0,0,0,0,0],"split_type":[0,0,0,0,0,0,0,0,0,0,0,0,0,0,0,0,0,0,0,0,0,0,0,0,0,0,0,0,0],"sum_hessian":[3.9702562E4,1.8999707E4,2.0702854E4,1.01053864E3,1.9692314E4,2.0360948E2,8.0692914E2,2.9614597E3,1.6730855E4,1.807074E2,2.2902092E1,7.799984E2,2.693073E1,5.434369E2,2.4180227E3,3.0133909E3,1.3717465E4,1.6237567E2,1.8331728E1,4.3118973E1,7.3687946E2,5.336478E2,9.789075E0,1.6640231E2,2.2516204E3,2.965761E3,4.7629757E1,5.918313E3,7.7991514E3],"tree_param":{"num_deleted":"0","num_feature":"5","num_nodes":"29","size_leaf_vector":"1"}},{"base_weights":[-9.602719E-3,-1.04849055E-1,9.316412E-1,3.016506E-1,1.0026913E0,-1.3845074E-1,5.8335364E-1,8.9475054E-1,1.0352286E0,1.0458489E-1,-1.9229261E0,7.2811824E-1,-6.2202066E-1,1.0862591E-1,8.517876E-1,1.014556E0,1.05266765E-1,-1.8264422E-2,1.09351896E-1,-1.6548888E-1,-2.880859E-1,-1.2138414E-1,7.7529274E-2,1.2886089E-3,-4.465769E-1,1.2182831E-2,9.191482E-2,1.0165181E-1,7.1606934E-2],"categories":[],"categories_nodes":[],"categories_segments":[],"categories_sizes":[],"default_left":[0,0,0,0,0,0,0,0,0,0,0,0,0,0,0,0,0,0,0,0,0,0,0,0,0,0,0,0,0],"id":22,"left_children":[1,-1,3,5,7,9,11,13,15,17,19,21,23,-1,25,27,-1,-1,-1,-1,-1,-1,-1,-1,-1,-1,-1,-1,-1],"loss_changes":[3.5540492E4,0E0,8.532422E2,2.3986128E2,5.9257812E1,3.27909E2,2.0625879E2,3.1791504E1,3.6767578E0,1.8937675E2,1.8502197E1,9.744702E1,3.099923E2,0E0,1.5980981E2,2.8149414E0,0E0,0E0,0E0,0E0,0E0,0E0,0E0,0E0,0E0,0E0,0E0,0E0,0E0],"parents":[2147483647,0,0,2,2,3,3,4,4,5,5,6,6,7,7,8,8,9,9,10,10,11,11,12,12,14,14,15,15],"right_children":[2,-1,4,6,8,10,12,14,16,18,20,22,24,-1,26,28,-1,-1,-1,-1,-1,-1,-1,-1,-1,-1,-1,-1,-1],"split_conditions":[4.787234E-1,-1.04849055E-1,1.1175785E-2,1.7795153E-1,5.4294117E-2,1.0638298E-2,1.5419912E-1,2.1276595E-2,2.038317E-1,2.3131792E-3,1.3005257E-1,7.361612E-1,1.0638298E-2,1.0862591E-1,2.2281056E-2,2.0212767E-1,1.05266765E-1,-1.8264422E-2,1.09351896E-1,-1.6548888E-1,-2.880859E-1,-1.2138414E-1,7.7529274E-2,1.2886089E-3,-4.465769E-1,1.2182831E-2,9.191482E-2,1.0165181E-1,7.1606934E-2],"split_indices":[1,0,2,0,2,2,4,2,2,2,4,1,2,0,2,2,0,0,0,0,0,0,0,0,0,0,0,0,0],"split_type":[0,0,0,0,0,0,0,0,0,0,0,0,0,0,0,0,0,0,0,0,0,0,0,0,0,0,0,0,0],"sum_hessian":[3.6343668E4,1.7275695E4,1.9067975E4,1.9330587E3,1.7134916E4,7.546252E2,1.1784335E3,3.9753699E3,1.3159546E4,6.6499756E2,8.962758E1,1.052433E3,1.2600051E2,7.2396906E2,3.2514006E3,6.0485767E3,7.110969E3,5.159568E2,1.490408E2,7.2163284E1,1.7464298E1,2.4373074E1,1.0280599E3,1.0899368E2,1.7006828E1,2.7492758E2,2.9764731E3,6.0066855E3,4.1891346E1],"tree_param":{"num_deleted":"0","num_feature":"5","num_nodes":"29","size_leaf_vector":"1"}},{"base_weights":[-9.60183E-3,-1.0436521E-1,9.144199E-1,2.817979E-1,9.9000275E-1,-1.2466376E-1,5.505346E-1,8.733305E-1,1.0256872E0,9.732653E-2,-1.6241215E0,6.934212E-1,-5.315521E-1,1.077124E-1,8.284496E-1,1.0030557E0,1.04485236E-1,-1.647038E-2,1.0824926E-1,-1.8165763E-1,-7.091717E-2,-1.0964884E-1,7.39361E-2,4.5998674E-2,-1.9892584E-1,1.1078729E-2,8.994761E-2,1.0051767E-1,6.8930246E-2],"categories":[],"categories_nodes":[],"categories_segments":[],"categories_sizes":[],"default_left":[0,0,0,0,0,0,0,0,0,0,0,0,0,0,0,0,0,0,0,0,0,0,0,0,0,0,0,0,0],"id":23,"left_children":[1,-1,3,5,7,9,11,13,15,17,19,21,23,-1,25,27,-1,-1,-1,-1,-1,-1,-1,-1,-1,-1,-1,-1,-1],"loss_changes":[3.1791473E4,0E0,8.398926E2,2.0505963E2,6.445215E1,2.4905865E2,1.7507178E2,3.2792725E1,4.161133E0,1.6855719E2,1.5701141E1,8.291995E1,1.9223187E2,0E0,1.5396704E2,2.989746E0,0E0,0E0,0E0,0E0,0E0,0E0,0E0,0E0,0E0,0E0,0E0,0E0,0E0],"parents":[2147483647,0,0,2,2,3,3,4,4,5,5,6,6,7,7,8,8,9,9,10,10,11,11,12,12,14,14,15,15],"right_children":[2,-1,4,6,8,10,12,14,16,18,20,22,24,-1,26,28,-1,-1,-1,-1,-1,-1,-1,-1,-1,-1,-1,-1,-1],"split_conditions":[4.787234E-1,-1.0436521E-1,1.1175785E-2,1.7795153E-1,5.4294117E-2,1.0638298E-2,1.5419912E-1,2.1276595E-2,2.038317E-1,2.3131792E-3,1E0,7.361612E-1,6.826758E-1,1.077124E-1,2.2281056E-2,2.0212767E-1,1.04485236E-1,-1.647038E-2,1.0824926E-1,-1.8165763E-1,-7.091717E-2,-1.0964884E-1,7.39361E-2,4.5998674E-2,-1.9892584E-1,1.1078729E-2,8.994761E-2,1.0051767E-1,6.8930246E-2],"split_indices":[1,0,2,0,2,2,4,2,2,2,1,1,1,0,2,2,0,0,0,0,0,0,0,0,0,0,0,0,0],"split_type":[0,0,0,0,0,0,0,0,0,0,0,0,0,0,0,0,0,0,0,0,0,0,0,0,0,0,0,0,0],"sum_hessian":[3.3270613E4,1.5700471E4,1.7570145E4,1.8756713E3,1.5694473E4,7.467522E2,1.1289191E3,3.6818677E3,1.20126045E4,6.5126886E2,9.548334E1,9.97554E2,1.313651E2,6.6035425E2,3.0215137E3,5.5326494E3,6.4799556E3,5.15098E2,1.3617079E2,7.80752E1,1.740813E1,2.4390285E1,9.7316376E2,7.859134E1,5.2773758E1,2.7233722E2,2.7491763E3,5.49331E3,3.9338943E1],"tree_param":{"num_deleted":"0","num_feature":"5","num_nodes":"29","size_leaf_vector":"1"}},{"base_weights":[-9.640992E-3,-1.039313E-1,8.975243E-1,2.6362368E-1,9.774704E-1,-1.1233882E-1,5.216438E-1,8.5169864E-1,1.0165449E0,9.047631E-2,-1.3995845E0,6.5928954E-1,-4.924366E-1,1.0689606E-1,8.0481875E-1,9.9178195E-1,1.03760414E-1,-1.4850378E-2,1.07256174E-1,-1.19089425E-1,-2.1436988E-1,2.9302297E-2,8.951647E-2,4.5904297E-2,-1.8106075E-1,1.006583E-2,8.7957025E-2,9.940768E-2,6.62346E-2],"categories":[],"categories_nodes":[],"categories_segments":[],"categories_sizes":[],"default_left":[0,0,0,0,0,0,0,0,0,0,0,0,0,0,0,0,0,0,0,0,0,0,0,0,0,0,0,0,0],"id":24,"left_children":[1,-1,3,5,7,9,11,13,15,17,19,21,23,-1,25,27,-1,-1,-1,-1,-1,-1,-1,-1,-1,-1,-1,-1,-1],"loss_changes":[2.8446135E4,0E0,8.202129E2,1.7607877E2,6.978516E1,1.9313934E2,1.5054822E2,3.391089E1,4.689453E0,1.5027658E2,1.3083023E1,8.164099E1,1.6286885E2,0E0,1.4792859E2,3.1679688E0,0E0,0E0,0E0,0E0,0E0,0E0,0E0,0E0,0E0,0E0,0E0,0E0,0E0],"parents":[2147483647,0,0,2,2,3,3,4,4,5,5,6,6,7,7,8,8,9,9,10,10,11,11,12,12,14,14,15,15],"right_children":[2,-1,4,6,8,10,12,14,16,18,20,22,24,-1,26,28,-1,-1,-1,-1,-1,-1,-1,-1,-1,-1,-1,-1,-1],"split_conditions":[4.787234E-1,-1.039313E-1,1.1175785E-2,1.7795153E-1,5.4294117E-2,1.0638298E-2,1.5419912E-1,2.1276595E-2,2.038317E-1,2.3131792E-3,1.3005257E-1,2.3131792E-3,1.3005257E-1,1.0689606E-1,2.2281056E-2,2.0212767E-1,1.03760414E-1,-1.4850378E-2,1.07256174E-1,-1.19089425E-1,-2.1436988E-1,2.9302297E-2,8.951647E-2,4.5904297E-2,-1.8106075E-1,1.006583E-2,8.7957025E-2,9.940768E-2,6.62346E-2],"split_indices":[1,0,2,0,2,2,4,2,2,2,4,2,3,0,2,2,0,0,0,0,0,0,0,0,0,0,0,0,0],"split_type":[0,0,0,0,0,0,0,0,0,0,0,0,0,0,0,0,0,0,0,0,0,0,0,0,0,0,0,0,0],"sum_hessian":[3.0451553E4,1.4262664E4,1.6188889E4,1.8135304E3,1.4375358E4,7.383058E2,1.0752246E3,3.412886E3,1.0962473E4,6.386167E2,9.9689095E1,9.4702985E2,1.2819476E2,6.0185E2,2.811036E3,5.0602793E3,5.902193E3,5.143129E2,1.2430381E2,7.988531E1,1.9803787E1,3.7185547E2,5.751744E2,7.483167E1,5.3363094E1,2.6999783E2,2.541038E3,5.0232705E3,3.7008995E1],"tree_param":{"num_deleted":"0","num_feature":"5","num_nodes":"29","size_leaf_vector":"1"}},{"base_weights":[-9.675433E-3,-1.0354179E-1,8.805902E-1,2.4674077E-1,9.649719E-1,-1.0148796E-1,4.9484134E-1,8.2975465E-1,1.0076948E0,8.402035E-2,-1.2221627E0,6.2735635E-1,-4.5753777E-1,5.1885504E-1,8.660159E-1,9.8061746E-1,1.03082895E-1,-1.3387878E-2,1.0635747E-1,-1.10793546E-1,-2.4575984E-1,2.6784534E-2,8.738243E-2,4.339036E-2,-1.767234E-1,5.675584E-2,-4.9179026E-1,1.0599321E-1,8.224636E-2,9.831016E-2,6.352364E-2],"categories":[],"categories_nodes":[],"categories_segments":[],"categories_sizes":[],"default_left":[0,0,0,0,0,0,0,0,0,0,0,0,0,0,0,0,0,0,0,0,0,0,0,0,0,0,0,0,0,0,0],"id":25,"left_children":[1,-1,3,5,7,9,11,13,15,17,19,21,23,25,27,29,-1,-1,-1,-1,-1,-1,-1,-1,-1,-1,-1,-1,-1,-1,-1],"loss_changes":[2.5455898E4,0E0,7.979502E2,1.5164368E2,7.524512E1,1.5204059E2,1.2962135E2,3.526245E1,5.254883E0,1.3418112E2,1.1934021E1,7.951721E1,1.4758557E2,9.106253E1,2.3074219E1,3.347168E0,0E0,0E0,0E0,0E0,0E0,0E0,0E0,0E0,0E0,0E0,0E0,0E0,0E0,0E0,0E0],"parents":[2147483647,0,0,2,2,3,3,4,4,5,5,6,6,7,7,8,8,9,9,10,10,11,11,12,12,13,13,14,14,15,15],"right_children":[2,-1,4,6,8,10,12,14,16,18,20,22,24,26,28,30,-1,-1,-1,-1,-1,-1,-1,-1,-1,-1,-1,-1,-1,-1,-1],"split_conditions":[4.787234E-1,-1.0354179E-1,1.1175785E-2,1.7795153E-1,5.4294117E-2,1.0638298E-2,1.5419912E-1,1.7485343E-3,2.038317E-1,2.3131792E-3,1.548786E-1,2.3131792E-3,6.826758E-1,3.3273542E-1,2.1276595E-2,2.0212767E-1,1.03082895E-1,-1.3387878E-2,1.0635747E-1,-1.10793546E-1,-2.4575984E-1,2.6784534E-2,8.738243E-2,4.339036E-2,-1.767234E-1,5.675584E-2,-4.9179026E-1,1.0599321E-1,8.224636E-2,9.831016E-2,6.352364E-2],"split_indices":[1,0,2,0,2,2,4,4,2,2,0,2,1,3,2,2,0,0,0,0,0,0,0,0,0,0,0,0,0,0,0],"split_type":[0,0,0,0,0,0,0,0,0,0,0,0,0,0,0,0,0,0,0,0,0,0,0,0,0,0,0,0,0,0,0],"sum_hessian":[2.7874002E4,1.2951469E4,1.4922532E4,1.7536409E3,1.3168892E4,7.2984155E2,1.02379926E3,3.1667188E3,1.0002173E4,6.269808E2,1.0286078E2,8.990463E2,1.2475296E2,3.3236557E2,2.834353E3,4.628323E3,5.3738496E3,5.1359607E2,1.1338469E2,9.589154E1,6.9692416E0,3.665151E2,5.3253125E2,7.462699E1,5.012597E1,3.3030228E2,2.0632954E0,5.155472E2,2.318806E3,4.5934395E3,3.4883865E1],"tree_param":{"num_deleted":"0","num_feature":"5","num_nodes":"31","size_leaf_vector":"1"}},{"base_weights":[-9.748235E-3,-1.0319185E-1,8.632475E-1,2.3047888E-1,9.5229876E-1,-1.2017899E0,2.919588E-1,8.070404E-1,9.990389E-1,-9.333856E-1,-1.6706656E0,-4.1798953E-2,5.352986E-1,4.1155827E-1,8.39948E-1,9.6945393E-1,1.02444366E-1,-1.3509151E-1,8.7052904E-2,-1.0414211E-1,-2.632547E-1,1.3009091E-2,-1.0664369E-1,5.840073E-2,-1.3241775E-1,6.4863466E-2,-3.7905368E-1,1.054642E-1,7.963662E-2,9.7214326E-2,6.0802884E-2],"categories":[],"categories_nodes":[],"categories_segments":[],"categories_sizes":[],"default_left":[0,0,0,0,0,0,0,0,0,0,0,0,0,0,0,0,0,0,0,0,0,0,0,0,0,0,0,0,0,0,0],"id":26,"left_children":[1,-1,3,5,7,9,11,13,15,17,19,21,23,25,27,29,-1,-1,-1,-1,-1,-1,-1,-1,-1,-1,-1,-1,-1,-1,-1],"loss_changes":[2.2776803E4,0E0,7.755244E2,1.5002252E2,8.112891E1,7.2693253E0,1.324527E2,3.7956543E1,5.8652344E0,3.6485687E1,1.1949944E1,1.2139748E2,8.619269E1,2.2963335E2,2.457312E1,3.5251465E0,0E0,0E0,0E0,0E0,0E0,0E0,0E0,0E0,0E0,0E0,0E0,0E0,0E0,0E0,0E0],"parents":[2147483647,0,0,2,2,3,3,4,4,5,5,6,6,7,7,8,8,9,9,10,10,11,11,12,12,13,13,14,14,15,15],"right_children":[2,-1,4,6,8,10,12,14,16,18,20,22,24,26,28,30,-1,-1,-1,-1,-1,-1,-1,-1,-1,-1,-1,-1,-1,-1,-1],"split_conditions":[4.787234E-1,-1.0319185E-1,1.1175785E-2,5.583256E-1,5.4294117E-2,1.249801E-1,1.7795153E-1,5.583256E-1,2.038317E-1,1.2107936E-1,2.3131792E-3,1.0638298E-2,3.0546463E-1,5.212766E-1,2.1276595E-2,2.0212767E-1,1.02444366E-1,-1.3509151E-1,8.7052904E-2,-1.0414211E-1,-2.632547E-1,1.3009091E-2,-1.0664369E-1,5.840073E-2,-1.3241775E-1,6.4863466E-2,-3.7905368E-1,1.054642E-1,7.963662E-2,9.7214326E-2,6.0802884E-2],"split_indices":[1,0,2,1,2,4,0,1,2,4,2,2,0,1,2,2,0,0,0,0,0,0,0,0,0,0,0,0,0,0,0],"split_type":[0,0,0,0,0,0,0,0,0,0,0,0,0,0,0,0,0,0,0,0,0,0,0,0,0,0,0,0,0,0,0],"sum_hessian":[2.552251E4,1.1756692E4,1.3765817E4,1.6987369E3,1.206708E4,6.915348E1,1.6295835E3,2.9420586E3,9.125021E3,4.588033E1,2.327315E1,6.874817E2,9.4210175E2,2.270372E2,2.7150212E3,4.2337783E3,4.8912437E3,3.7460857E1,8.419474E0,1.5328334E1,7.9448156E0,5.894676E2,9.801409E1,9.1872186E2,2.337988E1,2.1571263E2,1.1324569E1,4.5422192E2,2.2607993E3,4.200831E3,3.294714E1],"tree_param":{"num_deleted":"0","num_feature":"5","num_nodes":"31","size_leaf_vector":"1"}},{"base_weights":[-9.859745E-3,-1.0287718E-1,8.448072E-1,2.1272685E-1,9.395393E-1,-1.1686122E0,2.6931682E-1,7.842501E-1,9.9048495E-1,-9.194891E-1,-1.5782633E0,2.8475719E-2,5.6927997E-1,1.0497131E-1,7.306368E-1,9.581898E-1,1.0183712E-1,-1.343957E-1,8.26854E-2,-1.0257729E-1,-2.3059793E-1,1.44019695E-2,-6.996022E-2,1.0543763E-1,9.1080146E-4,-5.534437E-3,8.213212E-2,9.611005E-2,5.8078963E-2],"categories":[],"categories_nodes":[],"categories_segments":[],"categories_sizes":[],"default_left":[0,0,0,0,0,0,0,0,0,0,0,0,0,0,0,0,0,0,0,0,0,0,0,0,0,0,0,0,0],"id":27,"left_children":[1,-1,3,5,7,9,11,13,15,17,19,21,23,-1,25,27,-1,-1,-1,-1,-1,-1,-1,-1,-1,-1,-1,-1,-1],"loss_changes":[2.0368746E4,0E0,7.614678E2,1.3001729E2,8.673926E1,5.2319717E0,1.1519414E2,3.8192993E1,6.5214844E0,3.3073215E1,7.0301895E0,7.460183E1,1.9296526E2,0E0,1.6260901E2,3.697998E0,0E0,0E0,0E0,0E0,0E0,0E0,0E0,0E0,0E0,0E0,0E0,0E0,0E0],"parents":[2147483647,0,0,2,2,3,3,4,4,5,5,6,6,7,7,8,8,9,9,10,10,11,11,12,12,14,14,15,15],"right_children":[2,-1,4,6,8,10,12,14,16,18,20,22,24,-1,26,28,-1,-1,-1,-1,-1,-1,-1,-1,-1,-1,-1,-1,-1],"split_conditions":[4.787234E-1,-1.0287718E-1,1.1175785E-2,5.583256E-1,5.4294117E-2,1.249801E-1,2.3131792E-3,2.1276595E-2,2.038317E-1,1.2107936E-1,2.3131792E-3,3.3273542E-1,1.0638298E-2,1.0497131E-1,2.2281056E-2,2.0212767E-1,1.0183712E-1,-1.343957E-1,8.26854E-2,-1.0257729E-1,-2.3059793E-1,1.44019695E-2,-6.996022E-2,1.0543763E-1,9.1080146E-4,-5.534437E-3,8.213212E-2,9.611005E-2,5.8078963E-2],"split_indices":[1,0,2,1,2,4,2,2,2,4,2,3,2,0,2,2,0,0,0,0,0,0,0,0,0,0,0,0,0],"split_type":[0,0,0,0,0,0,0,0,0,0,0,0,0,0,0,0,0,0,0,0,0,0,0,0,0,0,0,0,0],"sum_hessian":[2.3388027E4,1.0668779E4,1.2719249E4,1.6582385E3,1.106101E4,6.448693E1,1.5937516E3,2.7364229E3,8.324587E3,4.2118046E1,2.2368887E1,8.8459955E2,7.0915204E2,4.566698E2,2.2797532E3,3.873745E3,4.4508423E3,3.406789E1,8.0501585E0,1.4084982E1,8.283905E0,7.641355E2,1.2046402E2,3.795704E2,3.2958163E2,2.358637E2,2.0438894E3,3.842562E3,3.1183216E1],"tree_param":{"num_deleted":"0","num_feature":"5","num_nodes":"29","size_leaf_vector":"1"}},{"base_weights":[-9.913858E-3,-1.0259401E-1,8.2612497E-1,1.9693555E-1,9.265042E-1,-1.1369628E0,2.4908243E-1,7.609963E-1,9.819477E-1,-9.042065E-1,-1.4992853E0,-5.977349E-2,4.8715812E-1,4.8471627E-1,8.182226E-1,9.467304E-1,1.012542E-1,-1.3353442E-1,7.840794E-2,-1.01089075E-1,-2.0608771E-1,9.422033E-3,-1.1519759E-1,1.670735E-2,7.512254E-2,5.421905E-2,-4.8052236E-1,1.0418558E-1,7.7161066E-2,9.498792E-2,5.535953E-2],"categories":[],"categories_nodes":[],"categories_segments":[],"categories_sizes":[],"default_left":[0,0,0,0,0,0,0,0,0,0,0,0,0,0,0,0,0,0,0,0,0,0,0,0,0,0,0,0,0,0,0],"id":28,"left_children":[1,-1,3,5,7,9,11,13,15,17,19,21,23,25,27,29,-1,-1,-1,-1,-1,-1,-1,-1,-1,-1,-1,-1,-1,-1,-1],"loss_changes":[1.8214941E4,0E0,7.427871E2,1.12954834E2,9.23457E1,3.798874E0,1.1471454E2,3.9921997E1,7.225586E0,2.9968838E1,4.057022E0,1.1444773E2,7.432942E1,1.3638943E2,2.1202026E1,3.864502E0,0E0,0E0,0E0,0E0,0E0,0E0,0E0,0E0,0E0,0E0,0E0,0E0,0E0,0E0,0E0],"parents":[2147483647,0,0,2,2,3,3,4,4,5,5,6,6,7,7,8,8,9,9,10,10,11,11,12,12,13,13,14,14,15,15],"right_children":[2,-1,4,6,8,10,12,14,16,18,20,22,24,26,28,30,-1,-1,-1,-1,-1,-1,-1,-1,-1,-1,-1,-1,-1,-1,-1],"split_conditions":[4.787234E-1,-1.0259401E-1,1.1175785E-2,5.583256E-1,5.4294117E-2,1.249801E-1,1.7795153E-1,4.9120687E-2,2.038317E-1,1.2107936E-1,2.3131792E-3,1.521739E-1,2.3131792E-3,3.3273542E-1,2.1276595E-2,2.0212767E-1,1.012542E-1,-1.3353442E-1,7.840794E-2,-1.01089075E-1,-2.0608771E-1,9.422033E-3,-1.1519759E-1,1.670735E-2,7.512254E-2,5.421905E-2,-4.8052236E-1,1.0418558E-1,7.7161066E-2,9.498792E-2,5.535953E-2],"split_indices":[1,0,2,1,2,4,0,4,2,4,2,0,2,3,2,2,0,0,0,0,0,0,0,0,0,0,0,0,0,0,0],"split_type":[0,0,0,0,0,0,0,0,0,0,0,0,0,0,0,0,0,0,0,0,0,0,0,0,0,0,0,0,0,0,0],"sum_hessian":[2.144154E4,9.678802E3,1.1762737E4,1.6188076E3,1.014393E4,6.012139E1,1.5586863E3,2.5491206E3,7.594809E3,3.873414E1,2.1387253E1,6.7881177E2,8.798745E2,4.390283E2,2.1100923E3,3.5455015E3,4.0493076E3,3.1021286E1,7.712853E0,1.2936726E1,8.450527E0,5.957311E2,8.308068E1,3.9848746E2,4.8138705E2,4.3519745E2,3.8308353E0,3.6026648E2,1.7498259E3,3.515924E3,2.9577513E1],"tree_param":{"num_deleted":"0","num_feature":"5","num_nodes":"31","size_leaf_vector":"1"}},{"base_weights":[-1.0036895E-2,-1.02338985E-1,8.0685574E-1,1.8181036E-1,9.1304374E-1,2.688047E-1,-5.7701576E-1,7.3698777E-1,9.733455E-1,-3.5486728E-1,3.9365205E-1,-9.468653E-2,-1.992926E0,2.7693847E-1,7.7660835E-1,9.3498594E-1,1.00689106E-1,-1.0406907E-2,-1.3870826E-1,1.4619867E-2,7.038482E-2,-1.4020051E-1,3.86385E-2,-2.5141916E-1,-6.27253E-2,5.426684E-2,-3.1744394E-1,8.107679E-2,3.6783446E-2,9.383897E-2,5.265339E-2],"categories":[],"categories_nodes":[],"categories_segments":[],"categories_sizes":[],"default_left":[0,0,0,0,0,0,0,0,0,0,0,0,0,0,0,0,0,0,0,0,0,0,0,0,0,0,0,0,0,0,0],"id":29,"left_children":[1,-1,3,5,7,9,11,13,15,17,19,21,23,25,27,29,-1,-1,-1,-1,-1,-1,-1,-1,-1,-1,-1,-1,-1,-1,-1],"loss_changes":[1.6283132E4,0E0,7.22688E2,1.0464139E2,9.811279E1,1.10759834E2,1.1120613E2,4.3150635E1,7.977051E0,6.133546E1,9.079538E1,7.7719635E1,2.7891663E1,1.7616602E2,3.0281128E1,4.020752E0,0E0,0E0,0E0,0E0,0E0,0E0,0E0,0E0,0E0,0E0,0E0,0E0,0E0,0E0,0E0],"parents":[2147483647,0,0,2,2,3,3,4,4,5,5,6,6,7,7,8,8,9,9,10,10,11,11,12,12,13,13,14,14,15,15],"right_children":[2,-1,4,6,8,10,12,14,16,18,20,22,24,26,28,30,-1,-1,-1,-1,-1,-1,-1,-1,-1,-1,-1,-1,-1,-1,-1],"split_conditions":[4.787234E-1,-1.02338985E-1,1.1175785E-2,1.6713805E-1,5.4294117E-2,6.803538E-2,1.0638298E-2,5.583256E-1,2.038317E-1,1.7367193E-2,2.3131792E-3,2.4764426E-1,3.8209546E-1,5.212766E-1,5.319149E-2,2.0212767E-1,1.00689106E-1,-1.0406907E-2,-1.3870826E-1,1.4619867E-2,7.038482E-2,-1.4020051E-1,3.86385E-2,-2.5141916E-1,-6.27253E-2,5.426684E-2,-3.1744394E-1,8.107679E-2,3.6783446E-2,9.383897E-2,5.265339E-2],"split_indices":[1,0,2,4,2,4,2,1,2,0,2,4,0,1,2,2,0,0,0,0,0,0,0,0,0,0,0,0,0,0,0],"split_type":[0,0,0,0,0,0,0,0,0,0,0,0,0,0,0,0,0,0,0,0,0,0,0,0,0,0,0,0,0,0,0],"sum_hessian":[1.966836E4,8.778456E3,1.0889902E4,1.5817997E3,9.308103E3,1.4196877E3,1.6211195E2,2.3781438E3,6.929959E3,2.3648586E2,1.1832019E3,1.2171624E2,4.0395714E1,1.8920479E2,2.188939E3,3.2464634E3,3.6834956E3,1.9114421E2,4.5341644E1,6.589822E2,5.242198E2,3.222635E1,8.948989E1,2.862776E1,1.1767954E1,1.7646136E2,1.274342E1,2.0192175E3,1.697214E2,3.2183467E3,2.811664E1],"tree_param":{"num_deleted":"0","num_feature":"5","num_nodes":"31","size_leaf_vector":"1"}},{"base_weights":[-1.015556E-2,-1.02109134E-1,7.874371E-1,1.6804574E-1,8.991684E-1,-1.1072974E0,2.1562059E-1,7.126155E-1,9.646011E-1,-1.3449107E0,-8.227418E-1,3.0792555E-1,-4.320567E-1,1.03655495E-1,6.508731E-1,9.2287284E-1,1.0013572E0,-9.943597E-2,-1.9503187E-1,9.025528E-2,-1.3722353E-1,7.352076E-3,7.165509E-2,-2.2785248E-4,-2.6129925E-1,-2.0603506E-2,7.5877644E-2,9.265482E-2,4.9969867E-2,9.707993E-2,1.0112323E-1],"categories":[],"categories_nodes":[],"categories_segments":[],"categories_sizes":[],"default_left":[0,0,0,0,0,0,0,0,0,0,0,0,0,0,0,0,0,0,0,0,0,0,0,0,0,0,0,0,0,0,0],"id":30,"left_children":[1,-1,3,5,7,9,11,13,15,17,19,21,23,-1,25,27,29,-1,-1,-1,-1,-1,-1,-1,-1,-1,-1,-1,-1,-1,-1],"loss_changes":[1.455524E4,0E0,6.981665E2,9.3875916E1,1.036582E2,2.657051E0,8.9128105E1,4.379785E1,8.77832E0,4.1637917E0,2.769335E1,1.2480234E2,1.7443378E2,0E0,1.7308704E2,4.1643066E0,2.9785156E-2,0E0,0E0,0E0,0E0,0E0,0E0,0E0,0E0,0E0,0E0,0E0,0E0,0E0,0E0],"parents":[2147483647,0,0,2,2,3,3,4,4,5,5,6,6,7,7,8,8,9,9,10,10,11,11,12,12,14,14,15,15,16,16],"right_children":[2,-1,4,6,8,10,12,14,16,18,20,22,24,-1,26,28,30,-1,-1,-1,-1,-1,-1,-1,-1,-1,-1,-1,-1,-1,-1],"split_conditions":[4.787234E-1,-1.02109134E-1,1.1175785E-2,5.583256E-1,5.4294117E-2,1.2107936E-1,3.3273542E-1,2.1276595E-2,2.038317E-1,2.3131792E-3,1.2309181E-1,2.2296056E-1,1.2107936E-1,1.03655495E-1,2.2281056E-2,2.0212767E-1,2.5896394E-1,-9.943597E-2,-1.9503187E-1,9.025528E-2,-1.3722353E-1,7.352076E-3,7.165509E-2,-2.2785248E-4,-2.6129925E-1,-2.0603506E-2,7.5877644E-2,9.265482E-2,4.9969867E-2,9.707993E-2,1.0112323E-1],"split_indices":[1,0,2,1,2,4,3,2,2,2,4,0,4,0,2,2,2,0,0,0,0,0,0,0,0,0,0,0,0,0,0],"split_type":[0,0,0,0,0,0,0,0,0,0,0,0,0,0,0,0,0,0,0,0,0,0,0,0,0,0,0,0,0,0,0],"sum_hessian":[1.8049559E4,7.960047E3,1.0089512E4,1.5422769E3,8.547234E3,5.4662384E1,1.4876145E3,2.222536E3,6.324698E3,2.775756E1,2.6904823E1,1.3025095E3,1.8510506E2,3.5327008E2,1.8692659E3,2.9742358E3,3.3504624E3,1.9252306E1,8.505256E0,6.343872E0,2.0560951E1,8.284534E2,4.7405606E2,1.5546915E2,2.9635916E1,2.0895464E2,1.6603113E3,2.9474478E3,2.6788158E1,8.4254486E2,2.5079175E3],"tree_param":{"num_deleted":"0","num_feature":"5","num_nodes":"31","size_leaf_vector":"1"}},{"base_weights":[-1.0239721E-2,-1.0190187E-1,7.668368E-1,2.5738758E-1,9.091855E-1,-3.107115E-2,4.797198E-1,7.5307524E-1,9.612365E-1,-5.1418297E-2,3.0089586E0,1.0419413E-1,2.7870983E-1,7.781816E-1,-1.2380816E0,9.256899E-1,1.004818E-1,-7.9215056E-4,-1.4403546E-1,9.164316E-2,3.2954937E-1,3.765585E-2,-1.3496163E-1,4.0704783E-2,8.2648695E-2,-2.1194552E-1,-6.495168E-2,9.299134E-2,6.7878075E-2],"categories":[],"categories_nodes":[],"categories_segments":[],"categories_sizes":[],"default_left":[0,0,0,0,0,0,0,0,0,0,0,0,0,0,0,0,0,0,0,0,0,0,0,0,0,0,0,0,0],"id":31,"left_children":[1,-1,3,5,7,9,11,13,15,17,19,-1,21,23,25,27,-1,-1,-1,-1,-1,-1,-1,-1,-1,-1,-1,-1,-1],"loss_changes":[1.3002495E4,0E0,6.792373E2,1.3133748E2,5.8779297E1,5.5343563E1,1.3039941E2,9.2732056E1,7.5722656E0,5.359219E1,5.4668045E-1,0E0,1.3645203E2,3.2174927E1,1.0681152E1,2.5339355E0,0E0,0E0,0E0,0E0,0E0,0E0,0E0,0E0,0E0,0E0,0E0,0E0,0E0],"parents":[2147483647,0,0,2,2,3,3,4,4,5,5,6,6,7,7,8,8,9,9,10,10,12,12,13,13,14,14,15,15],"right_children":[2,-1,4,6,8,10,12,14,16,18,20,-1,22,24,26,28,-1,-1,-1,-1,-1,-1,-1,-1,-1,-1,-1,-1,-1],"split_conditions":[4.787234E-1,-1.0190187E-1,2.2281056E-2,2.3131792E-3,6.433524E-2,6.679018E-1,1.0638298E-2,6.382979E-2,2.4630836E-1,2.6376978E-1,6.808436E-1,1.0419413E-1,2.5161746E-1,1.7485343E-3,1.3483714E-1,2.4468085E-1,1.004818E-1,-7.9215056E-4,-1.4403546E-1,9.164316E-2,3.2954937E-1,3.765585E-2,-1.3496163E-1,4.0704783E-2,8.2648695E-2,-2.1194552E-1,-6.495168E-2,9.299134E-2,6.7878075E-2],"split_indices":[1,0,2,2,2,4,2,2,2,4,1,0,4,4,4,2,0,0,0,0,0,0,0,0,0,0,0,0,0],"split_type":[0,0,0,0,0,0,0,0,0,0,0,0,0,0,0,0,0,0,0,0,0,0,0,0,0,0,0,0,0],"sum_hessian":[1.6584965E4,7.2164546E3,9.36851E3,2.0466387E3,7.321871E3,8.912159E2,1.1554229E3,1.83471E3,5.487161E3,8.862671E2,4.948766E0,3.031984E2,8.522244E2,1.812466E3,2.2244102E1,3.034418E3,2.4527432E3,8.6033014E2,2.5936932E1,1.1016785E0,3.8470876E0,8.0464105E2,4.758338E1,2.098209E2,1.602645E3,7.865095E0,1.4379007E1,2.9806665E3,5.3751495E1],"tree_param":{"num_deleted":"0","num_feature":"5","num_nodes":"29","size_leaf_vector":"1"}},{"base_weights":[-1.028372E-2,-1.0171483E-1,7.453129E-1,2.3840964E-1,8.9596707E-1,-3.0696379E-2,4.666107E-1,7.10121E-1,9.4652915E-1,7.260325E-2,-1.1688507E0,9.4033375E-2,6.610767E-1,1.0320927E-1,6.282129E-1,8.9745903E-1,9.904728E-1,-9.367826E-3,1.03061356E-1,-7.355924E-2,-5.041169E-1,2.6699899E-2,-6.091113E-2,8.011266E-2,-5.1553124E-3,-4.8350573E-2,7.503839E-2,9.0179525E-2,4.2094305E-2,9.543414E-2,1.00228064E-1],"categories":[],"categories_nodes":[],"categories_segments":[],"categories_sizes":[],"default_left":[0,0,0,0,0,0,0,0,0,0,0,0,0,0,0,0,0,0,0,0,0,0,0,0,0,0,0,0,0,0,0],"id":32,"left_children":[1,-1,3,5,7,9,11,13,15,17,19,21,23,-1,25,27,29,-1,-1,-1,-1,-1,-1,-1,-1,-1,-1,-1,-1,-1,-1],"loss_changes":[1.1609381E4,0E0,6.655283E2,1.2275382E2,6.247412E1,1.0802434E2,7.830374E1,3.736029E1,1.0495605E1,1.3432686E2,1.2455401E2,4.541712E1,7.095209E1,0E0,1.5676108E2,4.796509E0,2.277832E-1,0E0,0E0,0E0,0E0,0E0,0E0,0E0,0E0,0E0,0E0,0E0,0E0,0E0,0E0],"parents":[2147483647,0,0,2,2,3,3,4,4,5,5,6,6,7,7,8,8,9,9,10,10,11,11,12,12,14,14,15,15,16,16],"right_children":[2,-1,4,6,8,10,12,14,16,18,20,22,24,-1,26,28,30,-1,-1,-1,-1,-1,-1,-1,-1,-1,-1,-1,-1,-1,-1],"split_conditions":[4.787234E-1,-1.0171483E-1,2.2281056E-2,1.9641809E-1,5.4294117E-2,2.1276595E-2,2.3131792E-3,3.1914894E-2,2.038317E-1,1.1175785E-2,1.4645082E-1,3.3273542E-1,1.5586987E-1,1.0320927E-1,3.3085354E-2,2.0212767E-1,2.5896394E-1,-9.367826E-3,1.03061356E-1,-7.355924E-2,-5.041169E-1,2.6699899E-2,-6.091113E-2,8.011266E-2,-5.1553124E-3,-4.8350573E-2,7.503839E-2,9.0179525E-2,4.2094305E-2,9.543414E-2,1.00228064E-1],"split_indices":[1,0,2,0,2,2,2,2,2,2,0,3,4,0,2,2,2,0,0,0,0,0,0,0,0,0,0,0,0,0,0],"split_type":[0,0,0,0,0,0,0,0,0,0,0,0,0,0,0,0,0,0,0,0,0,0,0,0,0,0,0,0,0,0,0],"sum_hessian":[1.5257773E4,6.541115E3,8.716658E3,1.9976802E3,6.7189785E3,9.170798E2,1.0806005E3,1.4402479E3,5.2787305E3,8.4162915E2,7.545061E1,3.710979E2,7.0950256E2,2.8973416E2,1.1505138E3,2.5040166E3,2.7747139E3,7.1792194E2,1.2370724E2,6.892844E1,6.5221677E0,2.983319E2,7.276598E1,5.928653E2,1.1663727E2,1.1362285E2,1.036891E3,2.4805515E3,2.3465076E1,7.0358875E2,2.071125E3],"tree_param":{"num_deleted":"0","num_feature":"5","num_nodes":"31","size_leaf_vector":"1"}},{"base_weights":[-1.0216485E-2,-1.0154589E-1,7.234921E-1,2.2120704E-1,8.8218796E-1,-2.6624016E-2,4.3916655E-1,7.0613277E-1,9.4345134E-1,6.700593E-2,-9.6234775E-1,8.523108E-2,6.3438565E-1,7.3423564E-1,-1.1797991E0,9.0160567E-1,9.956318E-2,-8.424525E-3,1.0260115E-1,-6.299909E-2,-3.1281802E-1,2.4352906E-2,-5.3461563E-2,7.7883475E-2,-4.625348E-3,3.3495825E-2,7.885484E-2,-7.067008E-2,-2.3188424E-1,9.0657584E-2,6.176513E-2],"categories":[],"categories_nodes":[],"categories_segments":[],"categories_sizes":[],"default_left":[0,0,0,0,0,0,0,0,0,0,0,0,0,0,0,0,0,0,0,0,0,0,0,0,0,0,0,0,0,0,0],"id":33,"left_children":[1,-1,3,5,7,9,11,13,15,17,19,21,23,25,27,29,-1,-1,-1,-1,-1,-1,-1,-1,-1,-1,-1,-1,-1,-1,-1],"loss_changes":[1.0364287E4,0E0,6.473125E2,1.05434456E2,6.591016E1,8.015822E1,7.169861E1,8.552954E1,9.094727E0,1.2076422E2,5.7933235E1,3.6466103E1,6.582489E1,3.388202E1,1.120694E1,3.0390625E0,0E0,0E0,0E0,0E0,0E0,0E0,0E0,0E0,0E0,0E0,0E0,0E0,0E0,0E0,0E0],"parents":[2147483647,0,0,2,2,3,3,4,4,5,5,6,6,7,7,8,8,9,9,10,10,11,11,12,12,13,13,14,14,15,15],"right_children":[2,-1,4,6,8,10,12,14,16,18,20,22,24,26,28,30,-1,-1,-1,-1,-1,-1,-1,-1,-1,-1,-1,-1,-1,-1,-1],"split_conditions":[4.787234E-1,-1.0154589E-1,2.2281056E-2,1.9641809E-1,6.433524E-2,2.1276595E-2,2.3131792E-3,6.382979E-2,2.4630836E-1,1.1175785E-2,1.4645082E-1,3.3273542E-1,1.5586987E-1,1.7485343E-3,2.1861285E-1,2.4468085E-1,9.956318E-2,-8.424525E-3,1.0260115E-1,-6.299909E-2,-3.1281802E-1,2.4352906E-2,-5.3461563E-2,7.7883475E-2,-4.625348E-3,3.3495825E-2,7.885484E-2,-7.067008E-2,-2.3188424E-1,9.0657584E-2,6.176513E-2],"split_indices":[1,0,2,0,2,2,2,2,2,2,0,3,4,4,4,2,0,0,0,0,0,0,0,0,0,0,0,0,0,0,0],"split_type":[0,0,0,0,0,0,0,0,0,0,0,0,0,0,0,0,0,0,0,0,0,0,0,0,0,0,0,0,0,0,0],"sum_hessian":[1.4050229E4,5.927994E3,8.1222344E3,1.9506539E3,6.1715806E3,9.131892E2,1.0374647E3,1.596417E3,4.5751636E3,8.3096954E2,8.2219696E1,3.693193E2,6.6814545E2,1.5735792E3,2.2837734E1,2.5491619E3,2.0260017E3,7.185538E2,1.1241577E2,7.24004E1,9.819296E0,2.9467227E2,7.464702E1,5.5105347E2,1.1709196E2,1.8927812E2,1.384301E3,1.7280685E1,5.5570483E0,2.503155E3,4.6006798E1],"tree_param":{"num_deleted":"0","num_feature":"5","num_nodes":"31","size_leaf_vector":"1"}},{"base_weights":[-1.0217122E-2,-1.01393215E-1,7.010142E-1,2.5830156E-1,8.893249E-1,-1.2750788E-1,4.0659937E-1,7.246016E-1,9.339902E-1,1.3948565E-2,-2.2626786E0,6.1707113E-2,5.8203524E-1,7.638824E-1,-9.6734744E-1,8.886668E-1,9.910414E-2,1.1054452E-2,-2.5526258E-1,-1.9723634E-1,-4.2867652E-1,8.354131E-2,-1.2012219E-2,-2.0699726E-2,6.47397E-2,1.0250206E-1,6.5355785E-2,-1.1311366E-1,6.9917865E-2,8.9400694E-2,5.922432E-2],"categories":[],"categories_nodes":[],"categories_segments":[],"categories_sizes":[],"default_left":[0,0,0,0,0,0,0,0,0,0,0,0,0,0,0,0,0,0,0,0,0,0,0,0,0,0,0,0,0,0,0],"id":34,"left_children":[1,-1,3,5,7,9,11,13,15,17,19,21,23,25,27,29,-1,-1,-1,-1,-1,-1,-1,-1,-1,-1,-1,-1,-1,-1,-1],"loss_changes":[9.247852E3,0E0,6.3185767E2,1.2958696E2,3.8456543E1,1.9012502E2,9.893085E1,7.644183E1,9.929932E0,1.4686934E2,1.4528091E1,7.7841064E1,5.6040802E1,3.1417664E1,7.965826E0,3.1739502E0,0E0,0E0,0E0,0E0,0E0,0E0,0E0,0E0,0E0,0E0,0E0,0E0,0E0,0E0,0E0],"parents":[2147483647,0,0,2,2,3,3,4,4,5,5,6,6,7,7,8,8,9,9,10,10,11,11,12,12,13,13,14,14,15,15],"right_children":[2,-1,4,6,8,10,12,14,16,18,20,22,24,26,28,30,-1,-1,-1,-1,-1,-1,-1,-1,-1,-1,-1,-1,-1,-1,-1],"split_conditions":[4.787234E-1,-1.01393215E-1,3.3085354E-2,1.10129304E-1,6.433524E-2,1.0869565E-1,2.3131792E-3,6.382979E-2,2.4630836E-1,3.1914894E-2,1.1175785E-2,1.5038407E-1,6.4927304E-1,4.255319E-2,4.588197E-1,2.4468085E-1,9.910414E-2,1.1054452E-2,-2.5526258E-1,-1.9723634E-1,-4.2867652E-1,8.354131E-2,-1.2012219E-2,-2.0699726E-2,6.47397E-2,1.0250206E-1,6.5355785E-2,-1.1311366E-1,6.9917865E-2,8.9400694E-2,5.922432E-2],"split_indices":[1,0,2,0,2,0,2,2,2,2,2,0,1,2,4,2,0,0,0,0,0,0,0,0,0,0,0,0,0,0,0],"split_type":[0,0,0,0,0,0,0,0,0,0,0,0,0,0,0,0,0,0,0,0,0,0,0,0,0,0,0,0,0,0,0],"sum_hessian":[1.2952471E4,5.371538E3,7.580932E3,2.2630178E3,5.317914E3,6.2837836E2,1.6346395E3,1.138054E3,4.1798604E3,5.902663E2,3.8112057E1,5.515972E2,1.0830424E3,1.1127681E3,2.5285847E1,2.3385854E3,1.8412749E3,5.6977893E2,2.048735E1,3.505811E1,3.0539472E0,1.04279724E2,4.4731754E2,8.268765E1,1.0003547E3,3.2803003E2,7.847381E2,2.3315607E1,1.9702386E0,2.2952207E3,4.336457E1],"tree_param":{"num_deleted":"0","num_feature":"5","num_nodes":"31","size_leaf_vector":"1"}},{"base_weights":[-1.0241436E-2,-1.01255134E-1,6.771676E-1,2.3864356E-1,8.757643E-1,-3.0837327E-1,3.3669353E-1,7.013929E-1,9.2407626E-1,-1.6328403E0,-1.0458279E-1,5.3850435E-2,5.1803684E-1,7.421015E-1,-7.9502594E-1,8.7507254E-1,9.863947E-1,-1.2572616E-1,-3.9527565E-1,1.1393475E-2,-1.2429223E-1,4.9173888E-2,-8.870504E-3,1.0297181E-1,3.986607E-2,1.0219705E-1,6.279309E-2,-4.42187E-2,-1.613164E-1,8.8080086E-2,5.665798E-2,9.2872046E-2,9.968041E-2],"categories":[],"categories_nodes":[],"categories_segments":[],"categories_sizes":[],"default_left":[0,0,0,0,0,0,0,0,0,0,0,0,0,0,0,0,0,0,0,0,0,0,0,0,0,0,0,0,0,0,0,0,0],"id":35,"left_children":[1,-1,3,5,7,9,11,13,15,17,19,21,23,25,27,29,31,-1,-1,-1,-1,-1,-1,-1,-1,-1,-1,-1,-1,-1,-1,-1,-1],"loss_changes":[8.243984E3,0E0,6.1791187E2,1.1883813E2,4.0502686E1,9.0793106E1,9.628436E1,6.540112E1,1.080835E1,3.412728E1,7.305924E1,4.590544E1,6.947073E1,3.2469788E1,7.559767E0,3.2973633E0,7.946777E-2,0E0,0E0,0E0,0E0,0E0,0E0,0E0,0E0,0E0,0E0,0E0,0E0,0E0,0E0,0E0,0E0],"parents":[2147483647,0,0,2,2,3,3,4,4,5,5,6,6,7,7,8,8,9,9,10,10,11,11,12,12,13,13,14,14,15,15,16,16],"right_children":[2,-1,4,6,8,10,12,14,16,18,20,22,24,26,28,30,32,-1,-1,-1,-1,-1,-1,-1,-1,-1,-1,-1,-1,-1,-1,-1,-1],"split_conditions":[4.787234E-1,-1.01255134E-1,3.3085354E-2,6.417063E-2,6.433524E-2,6.393212E-1,2.3131792E-3,6.382979E-2,2.4630836E-1,3.1914894E-2,2.173913E-2,6.808436E-1,1.0638298E-2,4.255319E-2,2.1861285E-1,2.4468085E-1,6.393212E-1,-1.2572616E-1,-3.9527565E-1,1.1393475E-2,-1.2429223E-1,4.9173888E-2,-8.870504E-3,1.0297181E-1,3.986607E-2,1.0219705E-1,6.279309E-2,-4.42187E-2,-1.613164E-1,8.8080086E-2,5.665798E-2,9.2872046E-2,9.968041E-2],"split_indices":[1,0,2,4,2,1,2,2,2,2,0,1,2,2,4,2,1,0,0,0,0,0,0,0,0,0,0,0,0,0,0,0,0],"split_type":[0,0,0,0,0,0,0,0,0,0,0,0,0,0,0,0,0,0,0,0,0,0,0,0,0,0,0,0,0,0,0,0,0],"sum_hessian":[1.1963203E4,4.8666606E3,7.0965425E3,2.2127473E3,4.883795E3,3.360109E2,1.8767365E3,1.062923E3,3.820872E3,4.3871387E1,2.9213953E2,7.336897E2,1.1430468E3,1.0352637E3,2.7659235E1,2.1473562E3,1.6735159E3,3.9085632E1,4.7857556E0,2.4584636E2,4.629316E1,1.7959065E2,5.5409906E2,2.1478577E2,9.28261E2,2.9765768E2,7.37606E2,2.0401253E1,7.2579823E0,2.1063884E3,4.096779E1,2.6965833E2,1.4038575E3],"tree_param":{"num_deleted":"0","num_feature":"5","num_nodes":"33","size_leaf_vector":"1"}},{"base_weights":[-1.0322831E-2,-1.0113013E-1,6.5367216E-1,2.209044E-1,8.615081E-1,-1.192247E-1,3.586444E-1,6.7751956E-1,9.1365063E-1,1.0256888E-2,-2.0263798E0,5.9555124E-2,5.2721703E-1,7.1960896E-1,-6.7362976E-1,8.6076826E-1,9.816511E-1,9.53133E-3,-1.7278184E-1,-1.8051532E-1,-3.202408E-1,7.698803E-2,-1.0421642E-2,6.704547E-2,1.0331919E-2,1.0191621E-1,6.0189735E-2,-1.3208108E-1,-2.5503257E-2,1.0118129E-1,8.462933E-2,9.188724E-2,9.9306E-2],"categories":[],"categories_nodes":[],"categories_segments":[],"categories_sizes":[],"default_left":[0,0,0,0,0,0,0,0,0,0,0,0,0,0,0,0,0,0,0,0,0,0,0,0,0,0,0,0,0,0,0,0,0],"id":36,"left_children":[1,-1,3,5,7,9,11,13,15,17,19,21,23,25,27,29,31,-1,-1,-1,-1,-1,-1,-1,-1,-1,-1,-1,-1,-1,-1,-1,-1],"loss_changes":[7.349233E3,0E0,5.9773364E2,1.0114863E2,4.246216E1,1.5381548E2,7.742653E1,5.70968E1,1.1726807E1,8.652927E1,4.521866E0,6.4632545E1,5.9580505E1,3.3444794E1,7.950163E0,3.4613037E0,1.7785645E-1,0E0,0E0,0E0,0E0,0E0,0E0,0E0,0E0,0E0,0E0,0E0,0E0,0E0,0E0,0E0,0E0],"parents":[2147483647,0,0,2,2,3,3,4,4,5,5,6,6,7,7,8,8,9,9,10,10,11,11,12,12,13,13,14,14,15,15,16,16],"right_children":[2,-1,4,6,8,10,12,14,16,18,20,22,24,26,28,30,32,-1,-1,-1,-1,-1,-1,-1,-1,-1,-1,-1,-1,-1,-1,-1,-1],"split_conditions":[4.787234E-1,-1.0113013E-1,3.3085354E-2,1.10129304E-1,6.433524E-2,1.0869565E-1,2.3131792E-3,6.382979E-2,2.4630836E-1,3.1914894E-2,1.1175785E-2,1.5038407E-1,1.5586987E-1,4.255319E-2,1.3483714E-1,7.446808E-2,6.393212E-1,9.53133E-3,-1.7278184E-1,-1.8051532E-1,-3.202408E-1,7.698803E-2,-1.0421642E-2,6.704547E-2,1.0331919E-2,1.0191621E-1,6.0189735E-2,-1.3208108E-1,-2.5503257E-2,1.0118129E-1,8.462933E-2,9.188724E-2,9.9306E-2],"split_indices":[1,0,2,0,2,0,2,2,2,2,2,0,4,2,4,2,1,0,0,0,0,0,0,0,0,0,0,0,0,0,0,0,0],"split_type":[0,0,0,0,0,0,0,0,0,0,0,0,0,0,0,0,0,0,0,0,0,0,0,0,0,0,0,0,0,0,0,0,0],"sum_hessian":[1.1055393E4,4.408706E3,6.646687E3,2.1571045E3,4.4895825E3,6.217981E2,1.5353064E3,9.944819E2,3.4951003E3,5.8319794E2,3.8600163E1,5.5390186E2,9.814046E2,9.6489215E2,2.9589748E1,1.9737896E3,1.5213109E3,5.568905E2,2.630746E1,3.462222E1,3.9779449E0,1.0308614E2,4.508157E2,7.3310297E2,2.4830159E2,2.700386E2,6.948535E2,1.07752E1,1.8814548E1,1.6658578E2,1.8072037E3,2.4649239E2,1.2748185E3],"tree_param":{"num_deleted":"0","num_feature":"5","num_nodes":"33","size_leaf_vector":"1"}},{"base_weights":[-1.0353557E-2,-1.0101687E-1,6.288892E-1,1.462146E-1,8.218094E-1,-7.102265E-2,3.532968E-1,5.85825E-1,8.948311E-1,6.826094E-2,-7.683624E-1,4.790108E-1,-2.2234936E-1,1.02258936E-1,4.6992868E-1,8.243358E-1,9.617468E-1,1.5030729E-2,-1.5900572E-1,-1.0287175E-1,1.7690074E-1,1.7858192E-2,6.975912E-2,-2.3442705E-1,-3.1216796E-3,-5.065589E-2,6.189835E-2,8.308655E-2,1.4891498E-2,9.0799384E-2,9.8010145E-2],"categories":[],"categories_nodes":[],"categories_segments":[],"categories_sizes":[],"default_left":[0,0,0,0,0,0,0,0,0,0,0,0,0,0,0,0,0,0,0,0,0,0,0,0,0,0,0,0,0,0,0],"id":37,"left_children":[1,-1,3,5,7,9,11,13,15,17,19,21,23,-1,25,27,29,-1,-1,-1,-1,-1,-1,-1,-1,-1,-1,-1,-1,-1,-1],"loss_changes":[6.5458633E3,0E0,5.8163403E2,8.033551E1,7.638721E1,8.475644E1,6.626036E1,5.3055542E1,1.52771E1,9.926502E1,9.7787125E1,4.916632E1,6.665798E1,0E0,1.2223836E2,7.223633E0,8.2836914E-1,0E0,0E0,0E0,0E0,0E0,0E0,0E0,0E0,0E0,0E0,0E0,0E0,0E0,0E0],"parents":[2147483647,0,0,2,2,3,3,4,4,5,5,6,6,7,7,8,8,9,9,10,10,11,11,12,12,14,14,15,15,16,16],"right_children":[2,-1,4,6,8,10,12,14,16,18,20,22,24,-1,26,28,30,-1,-1,-1,-1,-1,-1,-1,-1,-1,-1,-1,-1,-1,-1],"split_conditions":[4.787234E-1,-1.0101687E-1,2.2281056E-2,1.9641809E-1,5.4294117E-2,1.521739E-1,1.5586987E-1,3.1914894E-2,2.038317E-1,1.6972566E-1,6.679018E-1,2.3131792E-3,1.1828062E-1,1.02258936E-1,3.3085354E-2,2.0212767E-1,2.5896394E-1,1.5030729E-2,-1.5900572E-1,-1.0287175E-1,1.7690074E-1,1.7858192E-2,6.975912E-2,-2.3442705E-1,-3.1216796E-3,-5.065589E-2,6.189835E-2,8.308655E-2,1.4891498E-2,9.0799384E-2,9.8010145E-2],"split_indices":[1,0,2,0,2,0,4,2,2,4,4,2,3,0,2,2,2,0,0,0,0,0,0,0,0,0,0,0,0,0,0],"split_type":[0,0,0,0,0,0,0,0,0,0,0,0,0,0,0,0,0,0,0,0,0,0,0,0,0,0,0,0,0,0,0],"sum_hessian":[1.0239926E4,3.9934084E3,6.246517E3,1.7842328E3,4.4622847E3,8.7108636E2,9.131464E2,1.0566215E3,3.4056628E3,7.268172E2,1.4426918E2,7.4960895E2,1.6353746E2,2.1993951E2,8.36682E2,1.6649581E3,1.7407048E3,6.934192E2,3.339799E1,1.313828E2,1.2886387E1,3.1646255E2,4.331464E2,1.2582585E1,1.5095486E2,1.1048363E2,7.2619836E2,1.6487881E3,1.6169947E1,4.5593463E2,1.2847703E3],"tree_param":{"num_deleted":"0","num_feature":"5","num_nodes":"31","size_leaf_vector":"1"}},{"base_weights":[-1.0343803E-2,-1.0091412E-1,6.0470885E-1,1.8836045E-1,8.30626E-1,-7.865494E-1,2.4007657E-1,5.929821E-1,8.8250804E-1,-2.0630162E0,-1.12835355E-1,8.375226E-3,4.1585308E-1,7.475324E-1,-2.5181212E-2,8.0693746E-1,9.5524055E-1,-9.831313E-2,-2.9532084E-1,5.7319112E-2,-2.38905E-1,4.859936E-2,-1.4300889E-2,1.027954E-1,2.7713183E-2,1.015073E-1,5.4992463E-2,1.51362065E-2,-3.7803325E-1,8.138644E-2,1.3680589E-2,8.9680634E-2,9.753419E-2],"categories":[],"categories_nodes":[],"categories_segments":[],"categories_sizes":[],"default_left":[0,0,0,0,0,0,0,0,0,0,0,0,0,0,0,0,0,0,0,0,0,0,0,0,0,0,0,0,0,0,0,0,0],"id":38,"left_children":[1,-1,3,5,7,9,11,13,15,17,19,21,23,25,27,29,31,-1,-1,-1,-1,-1,-1,-1,-1,-1,-1,-1,-1,-1,-1,-1,-1],"loss_changes":[5.8316973E3,0E0,5.524634E2,1.0444863E2,4.6430664E1,8.9551285E1,8.000532E1,6.55076E1,1.6398926E1,3.1712738E1,1.0973071E2,6.1415905E1,9.4563675E1,2.843512E1,9.210515E1,7.0302124E0,9.8864746E-1,0E0,0E0,0E0,0E0,0E0,0E0,0E0,0E0,0E0,0E0,0E0,0E0,0E0,0E0,0E0,0E0],"parents":[2147483647,0,0,2,2,3,3,4,4,5,5,6,6,7,7,8,8,9,9,10,10,11,11,12,12,13,13,14,14,15,15,16,16],"right_children":[2,-1,4,6,8,10,12,14,16,18,20,22,24,26,28,30,32,-1,-1,-1,-1,-1,-1,-1,-1,-1,-1,-1,-1,-1,-1,-1,-1],"split_conditions":[4.787234E-1,-1.0091412E-1,3.3085354E-2,5.583256E-1,5.4294117E-2,1.2107936E-1,2.3131792E-3,5.319149E-2,2.038317E-1,2.3131792E-3,1.5419912E-1,6.808436E-1,1.0638298E-2,4.255319E-2,3.043478E-1,2.0212767E-1,2.5896394E-1,-9.831313E-2,-2.9532084E-1,5.7319112E-2,-2.38905E-1,4.859936E-2,-1.4300889E-2,1.027954E-1,2.7713183E-2,1.015073E-1,5.4992463E-2,1.51362065E-2,-3.7803325E-1,8.138644E-2,1.3680589E-2,8.9680634E-2,9.753419E-2],"split_indices":[1,0,2,1,2,4,2,2,2,2,4,1,2,2,0,2,2,0,0,0,0,0,0,0,0,0,0,0,0,0,0,0,0],"split_type":[0,0,0,0,0,0,0,0,0,0,0,0,0,0,0,0,0,0,0,0,0,0,0,0,0,0,0,0,0,0,0,0,0],"sum_hessian":[9.491046E3,3.616878E3,5.874168E3,2.0668862E3,3.8072817E3,1.0340326E2,1.9634829E3,6.844787E2,3.1228032E3,3.5009533E1,6.839373E1,8.47453E2,1.1160298E3,5.474089E2,1.3706984E2,1.5374528E3,1.5853505E3,1.677017E1,1.8239365E1,5.312931E1,1.5264417E1,2.0342737E2,6.4402563E2,2.0501239E2,9.1101746E2,2.3079688E2,3.16612E2,1.3183165E2,5.2381916E0,1.5215107E3,1.5941936E1,4.17449E2,1.1679014E3],"tree_param":{"num_deleted":"0","num_feature":"5","num_nodes":"33","size_leaf_vector":"1"}},{"base_weights":[-1.0392799E-2,-1.0082082E-1,5.802476E-1,1.1950453E-1,7.8683907E-1,-9.469991E-2,3.1044173E-1,5.380176E-1,8.6946684E-1,4.3084037E-2,-1.0622864E0,4.3211758E-1,-2.4750678E-1,1.0185982E-1,4.1421E-1,7.886826E-1,9.483843E-1,-1.6404187E-2,6.496517E-2,-1.3995038E-1,1.853407E-1,1.777067E-2,6.440419E-2,-1.2756948E-1,1.0198572E-2,-4.5725904E-2,5.6723326E-2,1.00898676E-1,7.6209486E-2,8.84954E-2,9.703805E-2],"categories":[],"categories_nodes":[],"categories_segments":[],"categories_sizes":[],"default_left":[0,0,0,0,0,0,0,0,0,0,0,0,0,0,0,0,0,0,0,0,0,0,0,0,0,0,0,0,0,0,0],"id":39,"left_children":[1,-1,3,5,7,9,11,13,15,17,19,21,23,-1,25,27,29,-1,-1,-1,-1,-1,-1,-1,-1,-1,-1,-1,-1,-1,-1],"loss_changes":[5.19331E3,0E0,5.267938E2,7.016419E1,7.810205E1,1.078903E2,6.167372E1,5.641864E1,1.7531738E1,8.918947E1,1.0177289E2,4.0046326E1,5.8702248E1,0E0,1.0178299E2,7.5650024E0,1.1578369E0,0E0,0E0,0E0,0E0,0E0,0E0,0E0,0E0,0E0,0E0,0E0,0E0,0E0,0E0],"parents":[2147483647,0,0,2,2,3,3,4,4,5,5,6,6,7,7,8,8,9,9,10,10,11,11,12,12,14,14,15,15,16,16],"right_children":[2,-1,4,6,8,10,12,14,16,18,20,22,24,-1,26,28,30,-1,-1,-1,-1,-1,-1,-1,-1,-1,-1,-1,-1,-1,-1],"split_conditions":[4.787234E-1,-1.0082082E-1,2.2281056E-2,1.7795153E-1,5.4294117E-2,1.521739E-1,1.5586987E-1,3.1914894E-2,2.038317E-1,1.10129304E-1,6.679018E-1,2.3131792E-3,2.0901865E-1,1.0185982E-1,3.3085354E-2,6.382979E-2,2.5896394E-1,-1.6404187E-2,6.496517E-2,-1.3995038E-1,1.853407E-1,1.777067E-2,6.440419E-2,-1.2756948E-1,1.0198572E-2,-4.5725904E-2,5.6723326E-2,1.00898676E-1,7.6209486E-2,8.84954E-2,9.703805E-2],"split_indices":[1,0,2,0,2,0,4,2,2,0,4,2,4,0,2,2,2,0,0,0,0,0,0,0,0,0,0,0,0,0,0],"split_type":[0,0,0,0,0,0,0,0,0,0,0,0,0,0,0,0,0,0,0,0,0,0,0,0,0,0,0,0,0,0,0],"sum_hessian":[8.809936E3,3.2755623E3,5.534373E3,1.7138038E3,3.820569E3,8.079277E2,9.0587616E2,9.543113E2,2.8662578E3,7.080562E2,9.987146E1,7.438787E2,1.6199744E2,1.9400806E2,7.6030316E2,1.421809E3,1.4444487E3,5.283642E2,1.7969205E2,8.998426E1,9.887204E0,3.388885E2,4.0499023E2,4.0423515E1,1.2157393E2,1.1326569E2,6.470375E2,1.4913506E2,1.272674E3,3.8254376E2,1.061905E3],"tree_param":{"num_deleted":"0","num_feature":"5","num_nodes":"31","size_leaf_vector":"1"}},{"base_weights":[-1.0275874E-2,-1.0073596E-1,5.558541E-1,1.6094303E-1,7.9640186E-1,-8.011668E-1,2.0976211E-1,5.729512E-1,8.6600465E-1,-1.9583899E0,-1.556998E-1,6.894009E-2,4.841953E-1,6.2622166E-1,-9.6614856E-1,7.964017E-1,9.608318E-1,-9.7374715E-2,-2.6912463E-1,4.5116704E-2,-2.656457E-1,1.8765435E-2,-4.628658E-2,1.0207497E-1,2.2710325E-2,1.01151645E-1,4.8580155E-2,4.852421E-3,-1.2694998E-1,8.049639E-2,3.4691818E-2,8.702319E-2,9.774572E-2],"categories":[],"categories_nodes":[],"categories_segments":[],"categories_sizes":[],"default_left":[0,0,0,0,0,0,0,0,0,0,0,0,0,0,0,0,0,0,0,0,0,0,0,0,0,0,0,0,0,0,0,0,0],"id":40,"left_children":[1,-1,3,5,7,9,11,13,15,17,19,21,23,25,27,29,31,-1,-1,-1,-1,-1,-1,-1,-1,-1,-1,-1,-1,-1,-1,-1,-1],"loss_changes":[4.62488E3,0E0,4.963131E2,9.3143906E1,5.0010986E1,7.125298E1,7.280326E1,6.4085236E1,1.5565186E1,2.2069489E1,9.617858E1,7.8796265E1,8.791118E1,4.0029785E1,8.155243E0,5.2348022E0,7.1954346E-1,0E0,0E0,0E0,0E0,0E0,0E0,0E0,0E0,0E0,0E0,0E0,0E0,0E0,0E0,0E0,0E0],"parents":[2147483647,0,0,2,2,3,3,4,4,5,5,6,6,7,7,8,8,9,9,10,10,11,11,12,12,13,13,14,14,15,15,16,16],"right_children":[2,-1,4,6,8,10,12,14,16,18,20,22,24,26,28,30,32,-1,-1,-1,-1,-1,-1,-1,-1,-1,-1,-1,-1,-1,-1,-1,-1],"split_conditions":[4.787234E-1,-1.0073596E-1,3.3085354E-2,5.583256E-1,6.433524E-2,1.2107936E-1,1.1175785E-2,6.382979E-2,2.4630836E-1,2.3131792E-3,2.5548214E-1,1.0638298E-2,2.1276595E-2,4.255319E-2,5.804207E-2,2.4468085E-1,6.393212E-1,-9.7374715E-2,-2.6912463E-1,4.5116704E-2,-2.656457E-1,1.8765435E-2,-4.628658E-2,1.0207497E-1,2.2710325E-2,1.01151645E-1,4.8580155E-2,4.852421E-3,-1.2694998E-1,8.049639E-2,3.4691818E-2,8.702319E-2,9.774572E-2],"split_indices":[1,0,2,1,2,4,2,2,2,2,0,2,2,2,0,2,1,0,0,0,0,0,0,0,0,0,0,0,0,0,0,0,0],"split_type":[0,0,0,0,0,0,0,0,0,0,0,0,0,0,0,0,0,0,0,0,0,0,0,0,0,0,0,0,0,0,0,0,0],"sum_hessian":[8.1911924E3,2.9662214E3,5.224971E3,1.9785023E3,3.2464688E3,9.480025E1,1.8837021E3,7.7325745E2,2.4732112E3,3.321564E1,6.1584606E1,1.2457249E3,6.3797723E2,7.479625E2,2.5294926E1,1.4317258E3,1.0414854E3,1.51667595E1,1.804888E1,5.02177E1,1.1366902E1,1.01892E3,2.2680492E2,2.057027E2,4.3227454E2,1.9812617E2,5.4983636E2,6.015122E0,1.9279802E1,1.4041863E3,2.7539452E1,1.6975436E2,8.71731E2],"tree_param":{"num_deleted":"0","num_feature":"5","num_nodes":"33","size_leaf_vector":"1"}},{"base_weights":[-1.0294333E-2,-1.0065867E-1,5.3022945E-1,1.8448976E-1,8.093241E-1,-8.8300335E-1,2.3584904E-1,7.113621E-1,9.336183E-1,-6.294592E-1,-7.77274E0,6.2189676E-2,4.8523977E-1,1.0131997E-1,6.691697E-1,8.601768E-1,9.597134E-1,-1.8509233E-1,-2.5970477E-3,-1.0265301E0,-1.3324523E-1,1.507435E-2,-5.2142967E-2,5.802197E-2,-4.019383E-2,-1.3451985E-2,7.506868E-2,8.701973E-2,2.1008631E-2,8.736812E-2,9.756158E-2],"categories":[],"categories_nodes":[],"categories_segments":[],"categories_sizes":[],"default_left":[0,0,0,0,0,0,0,0,0,0,0,0,0,0,0,0,0,0,0,0,0,0,0,0,0,0,0,0,0,0,0],"id":41,"left_children":[1,-1,3,5,7,9,11,13,15,17,19,21,23,-1,25,27,29,-1,-1,-1,-1,-1,-1,-1,-1,-1,-1,-1,-1,-1,-1],"loss_changes":[4.1139736E3,0E0,4.7773926E2,1.2156128E2,3.2699463E1,1.729636E2,9.146532E1,1.8890503E1,1.4829102E0,7.3142204E1,4.2919693E1,6.450243E1,7.329607E1,0E0,8.8614746E1,1.937088E0,3.517456E-1,0E0,0E0,0E0,0E0,0E0,0E0,0E0,0E0,0E0,0E0,0E0,0E0,0E0,0E0],"parents":[2147483647,0,0,2,2,3,3,4,4,5,5,6,6,7,7,8,8,9,9,10,10,11,11,12,12,14,14,15,15,16,16],"right_children":[2,-1,4,6,8,10,12,14,16,18,20,22,24,-1,26,28,30,-1,-1,-1,-1,-1,-1,-1,-1,-1,-1,-1,-1,-1,-1],"split_conditions":[4.787234E-1,-1.0065867E-1,4.3830518E-2,5.583256E-1,2.038317E-1,4.255319E-2,1.1175785E-2,5.319149E-2,2.5896394E-1,1.2107936E-1,2.2296056E-1,3.3273542E-1,4.255319E-2,1.0131997E-1,5.4294117E-2,5.341348E-1,6.393212E-1,-1.8509233E-1,-2.5970477E-3,-1.0265301E0,-1.3324523E-1,1.507435E-2,-5.2142967E-2,5.802197E-2,-4.019383E-2,-1.3451985E-2,7.506868E-2,8.701973E-2,2.1008631E-2,8.736812E-2,9.756158E-2],"split_indices":[1,0,2,1,2,2,2,2,2,4,0,3,2,0,2,4,1,0,0,0,0,0,0,0,0,0,0,0,0,0,0],"split_type":[0,0,0,0,0,0,0,0,0,0,0,0,0,0,0,0,0,0,0,0,0,0,0,0,0,0,0,0,0,0,0],"sum_hessian":[7.6374204E3,2.6859045E3,4.951516E3,2.2124343E3,2.7390815E3,1.0081526E2,2.1116191E3,1.5355598E3,1.2035217E3,9.828954E1,2.5257194E0,1.2455496E3,8.6606964E2,1.8550116E2,1.3500586E3,3.244264E2,8.7909534E2,3.181956E1,6.6469986E1,1.3927635E0,1.1329559E0,1.0821017E3,1.634479E2,7.826286E2,8.344101E1,1.2426461E2,1.2257941E3,3.1916818E2,5.258206E0,1.4587068E2,7.332246E2],"tree_param":{"num_deleted":"0","num_feature":"5","num_nodes":"31","size_leaf_vector":"1"}},{"base_weights":[-1.0298023E-2,-1.00588135E-1,5.046459E-1,1.6954416E-1,7.9182374E-1,-8.0082643E-1,2.1716297E-1,6.888697E-1,9.2542833E-1,-2.332851E0,-9.0581484E-2,-8.563986E-2,3.5761613E-1,1.0108546E-1,6.4529246E-1,8.461133E-1,9.5389867E-1,-1.8077153E-1,-7.31871E-1,4.561135E-2,-2.8628823E-1,3.3123388E-3,-1.9844937E-1,7.4901334E-3,5.2390676E-2,-1.1955815E-2,7.298259E-2,8.568348E-2,1.9596642E-2,8.607529E-2,9.712987E-2],"categories":[],"categories_nodes":[],"categories_segments":[],"categories_sizes":[],"default_left":[0,0,0,0,0,0,0,0,0,0,0,0,0,0,0,0,0,0,0,0,0,0,0,0,0,0,0,0,0,0,0],"id":42,"left_children":[1,-1,3,5,7,9,11,13,15,17,19,21,23,-1,25,27,29,-1,-1,-1,-1,-1,-1,-1,-1,-1,-1,-1,-1,-1,-1],"loss_changes":[3.658773E3,0E0,4.5252966E2,1.0053937E2,3.4200806E1,1.1057552E2,8.811908E1,1.9473572E1,1.6754761E0,7.110367E1,1.0831588E2,1.4825323E2,6.6489395E1,0E0,8.195068E1,1.9179382E0,4.6240234E-1,0E0,0E0,0E0,0E0,0E0,0E0,0E0,0E0,0E0,0E0,0E0,0E0,0E0,0E0],"parents":[2147483647,0,0,2,2,3,3,4,4,5,5,6,6,7,7,8,8,9,9,10,10,11,11,12,12,14,14,15,15,16,16],"right_children":[2,-1,4,6,8,10,12,14,16,18,20,22,24,-1,26,28,30,-1,-1,-1,-1,-1,-1,-1,-1,-1,-1,-1,-1,-1,-1],"split_conditions":[4.787234E-1,-1.00588135E-1,4.3830518E-2,5.583256E-1,2.038317E-1,1.2107936E-1,1.10129304E-1,5.319149E-2,2.5896394E-1,3.3085354E-2,2.6086956E-1,1.0869565E-1,2.3131792E-3,1.0108546E-1,5.4294117E-2,5.341348E-1,6.393212E-1,-1.8077153E-1,-7.31871E-1,4.561135E-2,-2.8628823E-1,3.3123388E-3,-1.9844937E-1,7.4901334E-3,5.2390676E-2,-1.1955815E-2,7.298259E-2,8.568348E-2,1.9596642E-2,8.607529E-2,9.712987E-2],"split_indices":[1,0,2,1,2,4,0,2,2,2,0,0,2,0,2,4,1,0,0,0,0,0,0,0,0,0,0,0,0,0,0],"split_type":[0,0,0,0,0,0,0,0,0,0,0,0,0,0,0,0,0,0,0,0,0,0,0,0,0,0,0,0,0,0,0],"sum_hessian":[7.1347183E3,2.431925E3,4.7027935E3,2.1710417E3,2.5317517E3,1.0081558E2,2.070226E3,1.4333705E3,1.0983812E3,3.1209965E1,6.960562E1,6.5610986E2,1.4141162E3,1.6822061E2,1.2651499E3,2.9823975E2,8.001415E2,2.9468737E1,1.7412275E0,5.883825E1,1.0767371E1,6.184139E2,3.7695957E1,5.2425977E2,8.8985645E2,1.2587051E2,1.1392794E3,2.930886E2,5.1511683E0,1.338868E2,6.6625464E2],"tree_param":{"num_deleted":"0","num_feature":"5","num_nodes":"31","size_leaf_vector":"1"}},{"base_weights":[-1.0404695E-2,-1.0052359E-1,4.800681E-1,1.5599531E-1,7.734445E-1,-7.552762E-1,2.001836E-1,6.656691E-1,9.166893E-1,-2.1773026E0,-8.889843E-2,-7.762335E-2,3.3280584E-1,1.00863E-1,6.208311E-1,8.3120984E-1,9.477116E-1,-1.2392515E-1,-3.145523E-1,4.2524565E-2,-2.7643308E-1,-8.445507E-2,1.8338045E-2,1.5551656E-2,5.882662E-2,-1.064153E-2,7.081242E-2,8.375447E-2,-2.0141834E-2,8.4702335E-2,9.6673764E-2],"categories":[],"categories_nodes":[],"categories_segments":[],"categories_sizes":[],"default_left":[0,0,0,0,0,0,0,0,0,0,0,0,0,0,0,0,0,0,0,0,0,0,0,0,0,0,0,0,0,0,0],"id":43,"left_children":[1,-1,3,5,7,9,11,13,15,17,19,21,23,-1,25,27,29,-1,-1,-1,-1,-1,-1,-1,-1,-1,-1,-1,-1,-1,-1],"loss_changes":[3.254977E3,0E0,4.2468164E2,8.568822E1,3.5590088E1,9.309905E1,7.4698814E1,2.0006653E1,1.874939E0,2.4594818E1,9.48224E1,1.314113E2,6.204901E1,0E0,7.557028E1,1.970993E0,5.787964E-1,0E0,0E0,0E0,0E0,0E0,0E0,0E0,0E0,0E0,0E0,0E0,0E0,0E0,0E0],"parents":[2147483647,0,0,2,2,3,3,4,4,5,5,6,6,7,7,8,8,9,9,10,10,11,11,12,12,14,14,15,15,16,16],"right_children":[2,-1,4,6,8,10,12,14,16,18,20,22,24,-1,26,28,30,-1,-1,-1,-1,-1,-1,-1,-1,-1,-1,-1,-1,-1,-1],"split_conditions":[4.787234E-1,-1.0052359E-1,4.3830518E-2,5.583256E-1,2.038317E-1,1.2107936E-1,1.10129304E-1,5.319149E-2,2.5896394E-1,1.1175785E-2,2.6086956E-1,1.1828062E-1,1.1175785E-2,1.00863E-1,5.4294117E-2,5.24582E-1,6.393212E-1,-1.2392515E-1,-3.145523E-1,4.2524565E-2,-2.7643308E-1,-8.445507E-2,1.8338045E-2,1.5551656E-2,5.882662E-2,-1.064153E-2,7.081242E-2,8.375447E-2,-2.0141834E-2,8.4702335E-2,9.6673764E-2],"split_indices":[1,0,2,1,2,4,0,2,2,2,0,3,2,0,2,0,1,0,0,0,0,0,0,0,0,0,0,0,0,0,0],"split_type":[0,0,0,0,0,0,0,0,0,0,0,0,0,0,0,0,0,0,0,0,0,0,0,0,0,0,0,0,0,0,0],"sum_hessian":[6.668899E3,2.201838E3,4.467061E3,2.1232185E3,2.3438423E3,9.745078E1,2.0257678E3,1.340737E3,1.0031051E3,3.0371567E1,6.707921E1,6.547216E2,1.3710463E3,1.5253316E2,1.188204E3,2.7450955E2,7.285956E2,1.6584126E1,1.3787441E1,5.6971855E1,1.0107358E1,1.6567383E2,4.890478E2,8.1030444E2,5.607418E2,1.2731478E2,1.0608892E3,2.7302353E2,1.4860177E0,1.23029175E2,6.055664E2],"tree_param":{"num_deleted":"0","num_feature":"5","num_nodes":"31","size_leaf_vector":"1"}},{"base_weights":[-1.0418302E-2,-1.0046442E-1,4.5544082E-1,1.4335385E-1,7.541771E-1,-2.2425131E-1,2.385809E-1,6.418236E-1,9.073429E-1,-1.3558489E-1,-1.7107266E0,9.482432E-2,4.5802054E-1,1.0065024E-1,5.958741E-1,8.1539774E-1,9.4110525E-1,-1.8532117E-1,-5.8710496E-3,-1.207237E-1,-3.736163E-1,2.1372087E-2,-4.0926203E-2,1.0115459E-1,3.0254869E-2,-9.484283E-3,6.856224E-2,8.802133E-2,6.503498E-2,8.3245076E-2,9.618935E-2],"categories":[],"categories_nodes":[],"categories_segments":[],"categories_sizes":[],"default_left":[0,0,0,0,0,0,0,0,0,0,0,0,0,0,0,0,0,0,0,0,0,0,0,0,0,0,0,0,0,0,0],"id":44,"left_children":[1,-1,3,5,7,9,11,13,15,17,19,21,23,-1,25,27,29,-1,-1,-1,-1,-1,-1,-1,-1,-1,-1,-1,-1,-1,-1],"loss_changes":[2.8952131E3,0E0,3.967295E2,7.296922E1,3.683838E1,5.6320965E1,5.2160988E1,2.0476929E1,2.081543E0,5.350171E1,2.003305E1,6.0088665E1,5.604048E1,0E0,6.94635E1,2.1444092E0,7.007446E-1,0E0,0E0,0E0,0E0,0E0,0E0,0E0,0E0,0E0,0E0,0E0,0E0,0E0,0E0],"parents":[2147483647,0,0,2,2,3,3,4,4,5,5,6,6,7,7,8,8,9,9,10,10,11,11,12,12,14,14,15,15,16,16],"right_children":[2,-1,4,6,8,10,12,14,16,18,20,22,24,-1,26,28,30,-1,-1,-1,-1,-1,-1,-1,-1,-1,-1,-1,-1,-1,-1],"split_conditions":[4.787234E-1,-1.0046442E-1,4.3830518E-2,4.6927925E-2,2.038317E-1,3.3273542E-1,1.1175785E-2,5.319149E-2,2.5896394E-1,5.583256E-1,1.1175785E-2,1.0638298E-2,2.1276595E-2,1.0065024E-1,5.4294117E-2,2.4468085E-1,6.393212E-1,-1.8532117E-1,-5.8710496E-3,-1.207237E-1,-3.736163E-1,2.1372087E-2,-4.0926203E-2,1.0115459E-1,3.0254869E-2,-9.484283E-3,6.856224E-2,8.802133E-2,6.503498E-2,8.3245076E-2,9.618935E-2],"split_indices":[1,0,2,0,2,3,2,2,2,1,2,2,2,0,2,2,1,0,0,0,0,0,0,0,0,0,0,0,0,0,0],"split_type":[0,0,0,0,0,0,0,0,0,0,0,0,0,0,0,0,0,0,0,0,0,0,0,0,0,0,0,0,0,0,0],"sum_hessian":[6.2488887E3,1.9934202E3,4.2554683E3,2.0819521E3,2.173516E3,4.2807983E2,1.6538724E3,1.2567952E3,9.167209E2,4.0501254E2,2.3067287E1,1.00011896E3,6.537534E2,1.382967E2,1.1184984E3,2.5296635E2,6.637545E2,1.6360401E1,3.8865216E2,1.9753048E1,3.3142397E0,8.097119E2,1.9040706E2,1.4215033E2,5.116031E2,1.2861336E2,9.898851E2,1.7852518E2,7.444118E1,1.13189445E2,5.505651E2],"tree_param":{"num_deleted":"0","num_feature":"5","num_nodes":"31","size_leaf_vector":"1"}},{"base_weights":[-1.0382162E-2,-1.0040996E-1,4.3047985E-1,1.3121367E-1,7.3404634E-1,-7.300213E-1,1.7152081E-1,6.1740285E-1,8.973576E-1,-2.0182183E0,-1.24253534E-1,-3.860875E-2,3.2265323E-1,1.00444965E-1,5.705125E-1,7.9876417E-1,9.340348E-1,-1.20152235E-1,-2.735672E-1,4.21734E-2,-2.5497773E-1,4.0161353E-2,-1.7818147E-2,1.0212892E-1,2.0418659E-2,-8.462728E-3,6.62367E-2,8.12224E-2,6.199117E-3,8.1700735E-2,9.567284E-2],"categories":[],"categories_nodes":[],"categories_segments":[],"categories_sizes":[],"default_left":[0,0,0,0,0,0,0,0,0,0,0,0,0,0,0,0,0,0,0,0,0,0,0,0,0,0,0,0,0,0,0],"id":45,"left_children":[1,-1,3,5,7,9,11,13,15,17,19,21,23,-1,25,27,29,-1,-1,-1,-1,-1,-1,-1,-1,-1,-1,-1,-1,-1,-1],"loss_changes":[2.5740796E3,0E0,3.696535E2,7.131456E1,3.7930542E1,7.1445404E1,6.2252693E1,2.0873901E1,2.289856E0,1.389312E1,8.52438E1,5.050368E1,9.414956E1,0E0,6.3624542E1,2.2755127E0,8.2769775E-1,0E0,0E0,0E0,0E0,0E0,0E0,0E0,0E0,0E0,0E0,0E0,0E0,0E0,0E0],"parents":[2147483647,0,0,2,2,3,3,4,4,5,5,6,6,7,7,8,8,9,9,10,10,11,11,12,12,14,14,15,15,16,16],"right_children":[2,-1,4,6,8,10,12,14,16,18,20,22,24,-1,26,28,30,-1,-1,-1,-1,-1,-1,-1,-1,-1,-1,-1,-1,-1,-1],"split_conditions":[4.787234E-1,-1.0040996E-1,4.3830518E-2,5.583256E-1,2.038317E-1,1.2107936E-1,2.3131792E-3,5.319149E-2,2.5896394E-1,1.1175785E-2,1.6353439E-1,6.808436E-1,1.0638298E-2,1.00444965E-1,5.4294117E-2,5.341348E-1,6.393212E-1,-1.20152235E-1,-2.735672E-1,4.21734E-2,-2.5497773E-1,4.0161353E-2,-1.7818147E-2,1.0212892E-1,2.0418659E-2,-8.462728E-3,6.62367E-2,8.12224E-2,6.199117E-3,8.1700735E-2,9.567284E-2],"split_indices":[1,0,2,1,2,4,2,2,2,2,4,1,2,0,2,4,1,0,0,0,0,0,0,0,0,0,0,0,0,0,0],"split_type":[0,0,0,0,0,0,0,0,0,0,0,0,0,0,0,0,0,0,0,0,0,0,0,0,0,0,0,0,0,0,0],"sum_hessian":[5.873669E3,1.8046503E3,4.0690188E3,2.0497437E3,2.019275E3,9.087716E1,1.9588665E3,1.1807303E3,8.385447E2,2.8320486E1,6.2556675E1,8.19795E2,1.1390715E3,1.2538067E2,1.0553497E3,2.3353896E2,6.0500574E2,1.4495075E1,1.382541E1,5.17368E1,1.0819873E1,1.968954E2,6.2289954E2,1.6404198E2,9.7502954E2,1.297812E2,9.255685E2,2.292485E2,4.2904563E0,1.0427488E2,5.0073087E2],"tree_param":{"num_deleted":"0","num_feature":"5","num_nodes":"31","size_leaf_vector":"1"}},{"base_weights":[-1.0321937E-2,-1.0035969E-1,4.0657917E-1,1.5381585E-1,7.5545394E-1,-6.591983E-3,3.433924E-1,6.600721E-1,9.1934E-1,1.1061302E-1,-4.8329607E-1,1.01345256E-1,2.1416265E-1,9.985857E-2,6.263644E-1,7.755552E-1,9.4759524E-2,-5.2369493E-3,1.0180368E-1,-3.0182615E-2,-2.552715E-1,-7.022885E-2,3.949077E-2,-1.4848286E-1,6.7356706E-2,7.927322E-2,-4.936598E-2],"categories":[],"categories_nodes":[],"categories_segments":[],"categories_sizes":[],"default_left":[0,0,0,0,0,0,0,0,0,0,0,0,0,0,0,0,0,0,0,0,0,0,0,0,0,0,0],"id":46,"left_children":[1,-1,3,5,7,9,11,13,15,17,19,-1,21,-1,23,25,-1,-1,-1,-1,-1,-1,-1,-1,-1,-1,-1],"loss_changes":[2.2897053E3,0E0,3.4333002E2,6.871875E1,2.4966919E1,6.8496574E1,8.946633E1,1.1215027E1,1.6999512E0,1.4559053E2,9.0084435E1,0E0,1.443079E2,0E0,9.531235E1,2.657341E0,0E0,0E0,0E0,0E0,0E0,0E0,0E0,0E0,0E0,0E0,0E0],"parents":[2147483647,0,0,2,2,3,3,4,4,5,5,6,6,7,7,8,8,9,9,10,10,12,12,14,14,15,15],"right_children":[2,-1,4,6,8,10,12,14,16,18,20,-1,22,-1,24,26,-1,-1,-1,-1,-1,-1,-1,-1,-1,-1,-1],"split_conditions":[4.787234E-1,-1.0035969E-1,5.4294117E-2,1.1175785E-2,2.4630836E-1,1.0638298E-2,2.1276595E-2,6.382979E-2,6.393212E-1,2.3131792E-3,3.3273542E-1,1.01345256E-1,2.2281056E-2,9.985857E-2,6.433524E-2,2.8316635E-1,9.4759524E-2,-5.2369493E-3,1.0180368E-1,-3.0182615E-2,-2.552715E-1,-7.022885E-2,3.949077E-2,-1.4848286E-1,6.7356706E-2,7.927322E-2,-4.936598E-2],"split_indices":[1,0,2,2,2,2,2,2,1,2,3,0,2,0,2,